{"learner":{"attributes":{"scikit_learn":"{\"_estimator_type\": \"regressor\"}"},"feature_names":["region_enc","semaine","temp_moy_c","temp_max_c","temp_min_c","temp_surface_c","pluie_mm","pluie_lag2","pluie_lag4","humidite_pct","vent_moy_ms","evapotranspiration_mm","humidite_sol_racine","humidite_sol_surface","ndvi","ndvi_lag2","ndvi_lag4","ndvi_lag8","lst_jour_c","semaine_sin","semaine_cos","population","saison_enc","indice_vectoriel","densite_km2","couverture_milda_pct","taux_pauvrete_pct","nb_cs_10k","altitude_m","zone_hydro_enc","dist_eau_km","cps_couverture_pct","aid_couverture_pct","tdr_tests_semaine","taux_positivite_tdr","pct_moins5","pct_graves","incidence_lag1_pour_1000","deces_nat_prec","incidence_nat_prec","tpi3_prec","log_cas_region_prec","tpi3_region_prec"],"feature_types":["int","int","float","float","float","float","float","float","float","float","float","float","float","float","float","float","float","float","float","float","float","int","int","float","int","float","float","float","int","int","float","float","float","int","float","float","float","float","int","float","float","float","float"],"gradient_booster":{"model":{"cats":{"enc":[],"feature_segments":[],"sorted_idx":[]},"gbtree_model_param":{"num_parallel_tree":"1","num_trees":"730"},"iteration_indptr":[0,1,2,3,4,5,6,7,8,9,10,11,12,13,14,15,16,17,18,19,20,21,22,23,24,25,26,27,28,29,30,31,32,33,34,35,36,37,38,39,40,41,42,43,44,45,46,47,48,49,50,51,52,53,54,55,56,57,58,59,60,61,62,63,64,65,66,67,68,69,70,71,72,73,74,75,76,77,78,79,80,81,82,83,84,85,86,87,88,89,90,91,92,93,94,95,96,97,98,99,100,101,102,103,104,105,106,107,108,109,110,111,112,113,114,115,116,117,118,119,120,121,122,123,124,125,126,127,128,129,130,131,132,133,134,135,136,137,138,139,140,141,142,143,144,145,146,147,148,149,150,151,152,153,154,155,156,157,158,159,160,161,162,163,164,165,166,167,168,169,170,171,172,173,174,175,176,177,178,179,180,181,182,183,184,185,186,187,188,189,190,191,192,193,194,195,196,197,198,199,200,201,202,203,204,205,206,207,208,209,210,211,212,213,214,215,216,217,218,219,220,221,222,223,224,225,226,227,228,229,230,231,232,233,234,235,236,237,238,239,240,241,242,243,244,245,246,247,248,249,250,251,252,253,254,255,256,257,258,259,260,261,262,263,264,265,266,267,268,269,270,271,272,273,274,275,276,277,278,279,280,281,282,283,284,285,286,287,288,289,290,291,292,293,294,295,296,297,298,299,300,301,302,303,304,305,306,307,308,309,310,311,312,313,314,315,316,317,318,319,320,321,322,323,324,325,326,327,328,329,330,331,332,333,334,335,336,337,338,339,340,341,342,343,344,345,346,347,348,349,350,351,352,353,354,355,356,357,358,359,360,361,362,363,364,365,366,367,368,369,370,371,372,373,374,375,376,377,378,379,380,381,382,383,384,385,386,387,388,389,390,391,392,393,394,395,396,397,398,399,400,401,402,403,404,405,406,407,408,409,410,411,412,413,414,415,416,417,418,419,420,421,422,423,424,425,426,427,428,429,430,431,432,433,434,435,436,437,438,439,440,441,442,443,444,445,446,447,448,449,450,451,452,453,454,455,456,457,458,459,460,461,462,463,464,465,466,467,468,469,470,471,472,473,474,475,476,477,478,479,480,481,482,483,484,485,486,487,488,489,490,491,492,493,494,495,496,497,498,499,500,501,502,503,504,505,506,507,508,509,510,511,512,513,514,515,516,517,518,519,520,521,522,523,524,525,526,527,528,529,530,531,532,533,534,535,536,537,538,539,540,541,542,543,544,545,546,547,548,549,550,551,552,553,554,555,556,557,558,559,560,561,562,563,564,565,566,567,568,569,570,571,572,573,574,575,576,577,578,579,580,581,582,583,584,585,586,587,588,589,590,591,592,593,594,595,596,597,598,599,600,601,602,603,604,605,606,607,608,609,610,611,612,613,614,615,616,617,618,619,620,621,622,623,624,625,626,627,628,629,630,631,632,633,634,635,636,637,638,639,640,641,642,643,644,645,646,647,648,649,650,651,652,653,654,655,656,657,658,659,660,661,662,663,664,665,666,667,668,669,670,671,672,673,674,675,676,677,678,679,680,681,682,683,684,685,686,687,688,689,690,691,692,693,694,695,696,697,698,699,700,701,702,703,704,705,706,707,708,709,710,711,712,713,714,715,716,717,718,719,720,721,722,723,724,725,726,727,728,729,730],"tree_info":[0,0,0,0,0,0,0,0,0,0,0,0,0,0,0,0,0,0,0,0,0,0,0,0,0,0,0,0,0,0,0,0,0,0,0,0,0,0,0,0,0,0,0,0,0,0,0,0,0,0,0,0,0,0,0,0,0,0,0,0,0,0,0,0,0,0,0,0,0,0,0,0,0,0,0,0,0,0,0,0,0,0,0,0,0,0,0,0,0,0,0,0,0,0,0,0,0,0,0,0,0,0,0,0,0,0,0,0,0,0,0,0,0,0,0,0,0,0,0,0,0,0,0,0,0,0,0,0,0,0,0,0,0,0,0,0,0,0,0,0,0,0,0,0,0,0,0,0,0,0,0,0,0,0,0,0,0,0,0,0,0,0,0,0,0,0,0,0,0,0,0,0,0,0,0,0,0,0,0,0,0,0,0,0,0,0,0,0,0,0,0,0,0,0,0,0,0,0,0,0,0,0,0,0,0,0,0,0,0,0,0,0,0,0,0,0,0,0,0,0,0,0,0,0,0,0,0,0,0,0,0,0,0,0,0,0,0,0,0,0,0,0,0,0,0,0,0,0,0,0,0,0,0,0,0,0,0,0,0,0,0,0,0,0,0,0,0,0,0,0,0,0,0,0,0,0,0,0,0,0,0,0,0,0,0,0,0,0,0,0,0,0,0,0,0,0,0,0,0,0,0,0,0,0,0,0,0,0,0,0,0,0,0,0,0,0,0,0,0,0,0,0,0,0,0,0,0,0,0,0,0,0,0,0,0,0,0,0,0,0,0,0,0,0,0,0,0,0,0,0,0,0,0,0,0,0,0,0,0,0,0,0,0,0,0,0,0,0,0,0,0,0,0,0,0,0,0,0,0,0,0,0,0,0,0,0,0,0,0,0,0,0,0,0,0,0,0,0,0,0,0,0,0,0,0,0,0,0,0,0,0,0,0,0,0,0,0,0,0,0,0,0,0,0,0,0,0,0,0,0,0,0,0,0,0,0,0,0,0,0,0,0,0,0,0,0,0,0,0,0,0,0,0,0,0,0,0,0,0,0,0,0,0,0,0,0,0,0,0,0,0,0,0,0,0,0,0,0,0,0,0,0,0,0,0,0,0,0,0,0,0,0,0,0,0,0,0,0,0,0,0,0,0,0,0,0,0,0,0,0,0,0,0,0,0,0,0,0,0,0,0,0,0,0,0,0,0,0,0,0,0,0,0,0,0,0,0,0,0,0,0,0,0,0,0,0,0,0,0,0,0,0,0,0,0,0,0,0,0,0,0,0,0,0,0,0,0,0,0,0,0,0,0,0,0,0,0,0,0,0,0,0,0,0,0,0,0,0,0,0,0,0,0,0,0,0,0,0,0,0,0,0,0,0,0,0,0,0,0,0,0,0,0,0,0,0,0,0,0,0,0,0,0,0,0,0,0,0,0,0,0,0,0,0,0,0,0,0,0,0,0,0,0,0,0,0,0,0,0,0,0,0,0,0,0,0,0,0,0,0,0,0,0,0,0,0,0,0,0,0,0,0,0,0,0,0,0,0,0,0,0,0,0,0,0,0,0,0,0,0,0,0,0,0,0,0,0,0,0,0,0,0,0,0,0,0,0,0,0,0,0,0,0,0,0,0,0,0,0,0,0,0,0,0,0,0,0,0,0,0],"trees":[{"base_weights":[-1.6647887E-7,-8.598784E-1,1.6315308E0,4.0399772E-1,-1.4704094E0,2.8472877E0,9.3313926E-1,2.4101497E-1,3.9079993E0,-1.6123205E0,1.6685141E0,1.7602738E0,3.4915862E0,1.4008232E-2,1.4839004E0,-8.80517E-1,6.4362204E-1,1.21187E0,6.206644E-1,-2.5272777E0,-1.3731058E0,1.8874243E0,3.733344E-1,2.278809E0,1.2749103E0,1.1499087E0,2.9960291E0,2.8162938E-1,-5.7703936E-1,1.4059905E0,2.6048555E0,-1.5789624E-1,-5.3964645E-1,3.0984655E-1,3.3432676E-3,-8.405169E-1,-6.583853E-1,-6.043856E-1,-3.5043526E-1,5.12622E-1,7.272548E-1,3.383438E-1,7.505093E-1,2.7549222E-1,5.485099E-1,9.305854E-1,6.201062E-1,2.4183276E-3,1.5365995E-1,-1.0610746E-1,-3.0005828E-1,2.8534317E-1,4.443293E-1,5.1185864E-1,8.8764256E-1],"categories":[],"categories_nodes":[],"categories_segments":[],"categories_sizes":[],"default_left":[0,0,0,0,0,0,0,0,0,0,0,0,0,0,0,0,0,0,0,0,0,0,0,0,0,0,0,0,0,0,0,0,0,0,0,0,0,0,0,0,0,0,0,0,0,0,0,0,0,0,0,0,0,0,0],"id":0,"left_children":[1,3,5,7,9,11,13,15,17,19,21,23,25,27,29,31,33,-1,-1,35,37,39,-1,41,43,-1,45,47,49,51,53,-1,-1,-1,-1,-1,-1,-1,-1,-1,-1,-1,-1,-1,-1,-1,-1,-1,-1,-1,-1,-1,-1,-1,-1],"loss_changes":[5.435466E3,1.9583877E3,1.1327251E3,4.7146527E2,7.648518E2,3.3520996E2,4.3067255E2,3.57958E2,5.2282715E-1,3.5493115E2,4.5671997E0,4.325244E1,4.012329E1,5.074746E1,4.2799072E1,6.719519E1,1.4349992E2,0E0,0E0,2.4728027E1,1.6863965E2,3.8467407E-1,0E0,1.9600525E1,1.7465302E1,0E0,6.2819824E0,1.3923218E1,9.097313E0,1.5658691E1,5.575699E0,0E0,0E0,0E0,0E0,0E0,0E0,0E0,0E0,0E0,0E0,0E0,0E0,0E0,0E0,0E0,0E0,0E0,0E0,0E0,0E0,0E0,0E0,0E0,0E0],"parents":[2147483647,0,0,1,1,2,2,3,3,4,4,5,5,6,6,7,7,8,8,9,9,10,10,11,11,12,12,13,13,14,14,15,15,16,16,19,19,20,20,21,21,23,23,24,24,26,26,27,27,28,28,29,29,30,30],"right_children":[2,4,6,8,10,12,14,16,18,20,22,24,26,28,30,32,34,-1,-1,36,38,40,-1,42,44,-1,46,48,50,52,54,-1,-1,-1,-1,-1,-1,-1,-1,-1,-1,-1,-1,-1,-1,-1,-1,-1,-1,-1,-1,-1,-1,-1,-1],"split_conditions":[9.503756E0,-4.6472317E-1,-3.546049E-1,1.85E1,1.85E1,1.0312679E1,1.0312679E1,1.0731244E-2,6.495987E-1,8.463796E-3,5.687911E-1,-8.2298386E-1,-7.485108E-1,6.82E0,5.8E1,-7.485108E-1,-7.485108E-1,1.21187E0,6.206644E-1,1E-1,3.8E1,4.5E1,3.733344E-1,1.3673E4,6.06E1,1.1499087E0,1.0841E4,6E1,2E0,5E0,1.5E1,-1.5789624E-1,-5.3964645E-1,3.0984655E-1,3.3432676E-3,-8.405169E-1,-6.583853E-1,-6.043856E-1,-3.5043526E-1,5.12622E-1,7.272548E-1,3.383438E-1,7.505093E-1,2.7549222E-1,5.485099E-1,9.305854E-1,6.201062E-1,2.4183276E-3,1.5365995E-1,-1.0610746E-1,-3.0005828E-1,2.8534317E-1,4.443293E-1,5.1185864E-1,8.8764256E-1],"split_indices":[41,20,20,35,35,41,41,37,14,37,17,20,20,35,32,20,20,0,0,34,24,32,0,33,42,0,33,42,0,0,1,0,0,0,0,0,0,0,0,0,0,0,0,0,0,0,0,0,0,0,0,0,0,0,0],"split_type":[0,0,0,0,0,0,0,0,0,0,0,0,0,0,0,0,0,0,0,0,0,0,0,0,0,0,0,0,0,0,0,0,0,0,0,0,0,0,0,0,0,0,0,0,0,0,0,0,0,0,0,0,0,0,0],"sum_hessian":[3.8724E3,2.5362E3,1.3362E3,8.262E2,1.71E3,4.864E2,8.498E2,7.905E2,3.57E1,1.6365E3,7.35E1,1.824E2,3.04E2,3.188E2,5.31E2,2.085E2,5.82E2,3.22E1,3.5E0,3.372E2,1.2993E3,4.62E1,2.73E1,8.64E1,9.6E1,1.76E2,1.28E2,2.198E2,9.9E1,4.986E2,3.24E1,1.516E2,5.69E1,3.599E2,2.221E2,1.807E2,1.565E2,3.125E2,9.868E2,3.78E1,8.4E0,1.5E1,7.14E1,6E1,3.6E1,1.128E2,1.5200001E1,1.01E2,1.188E2,6.6E1,3.3E1,7.26E1,4.26E2,1.08E1,2.16E1],"tree_param":{"num_deleted":"0","num_feature":"43","num_nodes":"55","size_leaf_vector":"1"}},{"base_weights":[1.8329779E-3,-6.016754E-1,1.1469269E0,2.1341106E-1,-1.0681918E0,2.0025668E0,6.554061E-1,-5.6956124E-1,5.5765504E-1,-1.1701896E0,1.1879084E0,1.2426215E0,2.4529648E0,9.0237E-3,1.0427326E0,2.9214498E-1,-7.9706335E-1,4.1646558E-1,2.6245797E0,-1.3434434E0,-4.1640478E-1,1.0800604E0,5.9120935E-1,9.4185853E-1,1.723099E0,2.771698E0,2.1506712E0,1.9784743E-1,-4.0798932E-1,9.429935E-1,1.5157206E0,-9.152751E-2,1.8066275E-1,-3.8101685E-1,-1.1540059E-1,2.6758906E-1,1.4456183E-2,8.356598E-1,2.9516935E-1,-5.569001E-1,-2.906893E-1,-1.6549118E-1,4.352411E-2,2.1136416E-1,3.7411976E-1,3.8017663E-1,1.3837726E-1,6.350914E-1,3.3859769E-1,8.5247606E-1,5.997077E-1,6.714642E-1,3.832416E-1,1.1121358E-1,-1.4457715E-2,-7.475039E-2,-2.1268833E-1,3.207885E-1,2.1796714E-1,4.023388E-1,6.785415E-1],"categories":[],"categories_nodes":[],"categories_segments":[],"categories_sizes":[],"default_left":[0,0,0,0,0,0,0,0,0,0,0,0,0,0,0,0,0,0,0,0,0,0,0,0,0,0,0,0,0,0,0,0,0,0,0,0,0,0,0,0,0,0,0,0,0,0,0,0,0,0,0,0,0,0,0,0,0,0,0,0,0],"id":1,"left_children":[1,3,5,7,9,11,13,15,17,19,21,23,25,27,29,31,33,35,37,39,41,43,-1,45,47,49,51,53,55,57,59,-1,-1,-1,-1,-1,-1,-1,-1,-1,-1,-1,-1,-1,-1,-1,-1,-1,-1,-1,-1,-1,-1,-1,-1,-1,-1,-1,-1,-1,-1],"loss_changes":[2.677495E3,9.650014E2,5.6106665E2,2.4947437E2,3.727533E2,1.637782E2,2.1299774E2,5.567296E1,1.864356E2,2.0114624E2,3.806404E0,2.4880157E1,2.3426147E1,2.5262392E1,2.3667969E1,1.1257594E1,4.320482E1,1.0549915E2,8.059845E0,2.3932178E2,2.2107624E1,3.1349945E0,0E0,1.7399872E1,1.3859543E1,2.1496582E0,9.447937E0,9.408832E0,4.603424E0,1.1305695E1,8.820282E0,0E0,0E0,0E0,0E0,0E0,0E0,0E0,0E0,0E0,0E0,0E0,0E0,0E0,0E0,0E0,0E0,0E0,0E0,0E0,0E0,0E0,0E0,0E0,0E0,0E0,0E0,0E0,0E0,0E0,0E0],"parents":[2147483647,0,0,1,1,2,2,3,3,4,4,5,5,6,6,7,7,8,8,9,9,10,10,11,11,12,12,13,13,14,14,15,15,16,16,17,17,18,18,19,19,20,20,21,21,23,23,24,24,25,25,26,26,27,27,28,28,29,29,30,30],"right_children":[2,4,6,8,10,12,14,16,18,20,22,24,26,28,30,32,34,36,38,40,42,44,-1,46,48,50,52,54,56,58,60,-1,-1,-1,-1,-1,-1,-1,-1,-1,-1,-1,-1,-1,-1,-1,-1,-1,-1,-1,-1,-1,-1,-1,-1,-1,-1,-1,-1,-1,-1],"split_conditions":[9.503756E0,-3.546049E-1,-3.546049E-1,1.4847457E-2,1.85E1,1.0312679E1,1.0312679E1,-9.7094184E-1,1.85E1,1.192E6,4.5E1,6.06E1,-8.2298386E-1,6.82E0,3.1817142E1,4E-2,6.6602128E-3,-8.2298386E-1,-4.6472317E-1,4.28E1,6.05E1,1.84E5,5.9120935E-1,1.9750041E-1,-7.485108E-1,2E0,3.5E1,8.7142855E-1,2E0,5.97E1,1.6E1,-9.152751E-2,1.8066275E-1,-3.8101685E-1,-1.1540059E-1,2.6758906E-1,1.4456183E-2,8.356598E-1,2.9516935E-1,-5.569001E-1,-2.906893E-1,-1.6549118E-1,4.352411E-2,2.1136416E-1,3.7411976E-1,3.8017663E-1,1.3837726E-1,6.350914E-1,3.3859769E-1,8.5247606E-1,5.997077E-1,6.714642E-1,3.832416E-1,1.1121358E-1,-1.4457715E-2,-7.475039E-2,-2.1268833E-1,3.207885E-1,2.1796714E-1,4.023388E-1,6.785415E-1],"split_indices":[41,20,20,37,35,41,41,20,35,21,32,42,20,35,5,34,37,20,20,26,25,21,0,16,20,36,1,13,0,42,1,0,0,0,0,0,0,0,0,0,0,0,0,0,0,0,0,0,0,0,0,0,0,0,0,0,0,0,0,0,0],"split_type":[0,0,0,0,0,0,0,0,0,0,0,0,0,0,0,0,0,0,0,0,0,0,0,0,0,0,0,0,0,0,0,0,0,0,0,0,0,0,0,0,0,0,0,0,0,0,0,0,0,0,0,0,0,0,0,0,0,0,0,0,0],"sum_hessian":[3.8724E3,2.5362E3,1.3362E3,9.234E2,1.6128E3,4.864E2,8.498E2,2.818E2,6.416E2,1.5435E3,6.9299995E1,1.824E2,3.04E2,3.188E2,5.31E2,5.88E1,2.23E2,6.017E2,3.9899998E1,1.2544E3,2.891E2,6.3E1,6.2999997E0,1.14E2,6.84E1,1.44E2,1.6E2,2.198E2,9.9E1,4.41E2,9E1,2.01E1,3.87E1,1.029E2,1.201E2,2.62E2,3.397E2,3.57E1,4.2E0,5.277E2,7.267E2,2.33E2,5.61E1,2.1E1,4.2E1,6.7E1,4.7E1,3.96E1,2.88E1,1.296E2,1.4400001E1,1.44E2,1.6E1,1.288E2,9.1E1,6.6E1,3.3E1,2.76E2,1.65E2,7.52E1,1.48E1],"tree_param":{"num_deleted":"0","num_feature":"43","num_nodes":"61","size_leaf_vector":"1"}},{"base_weights":[2.9975325E-3,-4.2069483E-1,8.0690813E-1,2.78471E-1,-7.0272684E-1,1.4100019E0,4.6046382E-1,6.3031964E-2,1.1779785E0,-7.940111E-1,6.9882566E-1,1.7879356E0,9.62035E-1,5.720307E-3,7.3295724E-1,2.272472E-1,-7.065435E-1,1.5917647E0,6.7531794E-1,-1.4827858E0,-6.812176E-1,1.0421319E0,3.7232935E-1,1.9144188E0,1.2648834E0,4.8470885E-1,1.1813829E0,-1.5650913E-1,2.7786052E-1,6.873044E-1,1.3938917E0,2.029739E-2,2.374054E-1,-3.655119E-1,-1.0205074E-1,5.02396E-1,1.011998E-1,4.3288313E-2,3.5769418E-1,2.7046338E-2,-4.4834355E-1,-2.3901294E-1,-5.8340754E-2,3.3074614E-1,-5.1976956E-2,-1.6176442E-2,1.9619972E-1,6.2769544E-1,4.9932945E-1,1.4872883E-1,3.9989087E-1,2.1235125E-1,-1.6121393E-2,4.1795927E-1,2.2663641E-1,-2.5664965E-2,-1.5075846E-1,1.1984077E-1,-2.1368595E-2,1.644175E-1,2.3863178E-1,1.8596372E-1,4.8398116E-1],"categories":[],"categories_nodes":[],"categories_segments":[],"categories_sizes":[],"default_left":[0,0,0,0,0,0,0,0,0,0,0,0,0,0,0,0,0,0,0,0,0,0,0,0,0,0,0,0,0,0,0,0,0,0,0,0,0,0,0,0,0,0,0,0,0,0,0,0,0,0,0,0,0,0,0,0,0,0,0,0,0,0,0],"id":2,"left_children":[1,3,5,7,9,11,13,15,17,19,21,23,25,27,29,31,33,35,37,39,41,43,45,47,49,51,53,55,57,59,61,-1,-1,-1,-1,-1,-1,-1,-1,-1,-1,-1,-1,-1,-1,-1,-1,-1,-1,-1,-1,-1,-1,-1,-1,-1,-1,-1,-1,-1,-1,-1,-1],"loss_changes":[1.3196613E3,5.0049902E2,2.7874316E2,1.4139174E2,2.318952E2,8.079761E1,1.0542236E2,7.4722404E1,2.8252213E1,1.3091406E2,1.2064987E1,1.4991089E1,2.3005905E1,1.4162388E1,1.5094269E1,4.3788597E1,1.9087753E1,7.3997955E0,1.7782677E1,4.513916E0,8.1976074E1,4.122841E0,7.0588875E0,5.8566895E0,2.1774216E0,8.76041E0,1.2804962E1,4.892212E0,5.114238E0,7.0867157E0,4.671356E0,0E0,0E0,0E0,0E0,0E0,0E0,0E0,0E0,0E0,0E0,0E0,0E0,0E0,0E0,0E0,0E0,0E0,0E0,0E0,0E0,0E0,0E0,0E0,0E0,0E0,0E0,0E0,0E0,0E0,0E0,0E0,0E0],"parents":[2147483647,0,0,1,1,2,2,3,3,4,4,5,5,6,6,7,7,8,8,9,9,10,10,11,11,12,12,13,13,14,14,15,15,16,16,17,17,18,18,19,19,20,20,21,21,22,22,23,23,24,24,25,25,26,26,27,27,28,28,29,29,30,30],"right_children":[2,4,6,8,10,12,14,16,18,20,22,24,26,28,30,32,34,36,38,40,42,44,46,48,50,52,54,56,58,60,62,-1,-1,-1,-1,-1,-1,-1,-1,-1,-1,-1,-1,-1,-1,-1,-1,-1,-1,-1,-1,-1,-1,-1,-1,-1,-1,-1,-1,-1,-1,-1,-1],"split_conditions":[9.503756E0,-5.6806475E-1,-3.546049E-1,1.24E0,1.08E1,2.8E1,1.0312679E1,1.009E1,3E1,1E-1,3.7E1,3.5620943E-1,2.26E1,6.06E1,5.8E1,1.9674E4,3.0425714E1,4.01E0,3.3475986E-1,2.9323308E-3,1.229E6,9.082429E1,3.8E1,6.54E1,2.504143E1,8.861714E1,4.642857E-1,2E0,6.2824E4,1.1523647E1,2.284702E-5,2.029739E-2,2.374054E-1,-3.655119E-1,-1.0205074E-1,5.02396E-1,1.011998E-1,4.3288313E-2,3.5769418E-1,2.7046338E-2,-4.4834355E-1,-2.3901294E-1,-5.8340754E-2,3.3074614E-1,-5.1976956E-2,-1.6176442E-2,1.9619972E-1,6.2769544E-1,4.9932945E-1,1.4872883E-1,3.9989087E-1,2.1235125E-1,-1.6121393E-2,4.1795927E-1,2.2663641E-1,-2.5664965E-2,-1.5075846E-1,1.1984077E-1,-2.1368595E-2,1.644175E-1,2.3863178E-1,1.8596372E-1,4.8398116E-1],"split_indices":[41,20,20,34,34,24,41,36,1,34,1,17,4,42,32,33,5,36,37,37,21,9,28,25,2,9,12,0,33,41,23,0,0,0,0,0,0,0,0,0,0,0,0,0,0,0,0,0,0,0,0,0,0,0,0,0,0,0,0,0,0,0,0],"split_type":[0,0,0,0,0,0,0,0,0,0,0,0,0,0,0,0,0,0,0,0,0,0,0,0,0,0,0,0,0,0,0,0,0,0,0,0,0,0,0,0,0,0,0,0,0,0,0,0,0,0,0,0,0,0,0,0,0,0,0,0,0,0,0],"sum_hessian":[3.8724E3,2.5362E3,1.3362E3,7.29E2,1.8072E3,4.864E2,8.498E2,5.89E2,1.4E2,1.6971E3,1.101E2,2.622E2,2.242E2,3.188E2,5.31E2,4.86E2,1.03E2,7.56E1,6.44E1,2.371E2,1.46E3,5.26E1,5.75E1,2.09E2,5.32E1,7.16E1,1.526E2,2E2,1.188E2,4.986E2,3.24E1,3.797E2,1.063E2,4.2E1,6.1E1,7.06E1,5E0,3.24E1,3.2E1,1.7E0,2.354E2,1.1795E3,2.805E2,5.02E1,2.4E0,2.32E1,3.43E1,1.178E2,9.12E1,5E0,4.82E1,5.04E1,2.12E1,1.004E2,5.22E1,1.67E2,3.3E1,8.8E1,3.0800001E1,2.206E2,2.78E2,8E0,2.44E1],"tree_param":{"num_deleted":"0","num_feature":"43","num_nodes":"63","size_leaf_vector":"1"}},{"base_weights":[3.1428796E-3,-3.25456E-1,5.239138E-1,3.0045027E-1,-5.172891E-1,8.537714E-1,9.227483E-2,9.24565E-2,8.4683037E-1,-7.8622353E-1,-5.83329E-2,4.9334657E-1,1.0777235E0,-2.8694427E-1,4.0493312E-1,-3.039994E-1,3.5670638E-1,1.0707635E0,5.5791265E-1,-4.1311952E-1,-1.0281546E0,2.70291E-1,-1.6526009E-1,2.0451821E-1,5.754218E-1,2.7105358E-1,1.1688564E0,-4.0295792E-1,2.8842166E-1,4.6185464E-1,-5.7573866E-2,-5.1176853E-2,-2.801328E-1,2.4572426E-1,6.08462E-2,2.1534704E-1,4.466969E-1,9.7383015E-2,2.2600035E-1,1.8848408E-2,-1.6894506E-1,-2.5064015E-1,-3.7569946E-1,1.2813431E-1,-2.1283014E-2,8.026263E-3,-1.0451331E-1,7.39605E-2,-1.7772263E-1,6.0441125E-2,1.83943E-1,1.9287609E-1,-2.1110715E-1,3.9282516E-1,2.5967255E-1,-1.431003E-1,4.2825714E-2,-1.3867079E-2,1.3161112E-1,1.6176839E-1,8.628427E-2,-7.603528E-2,5.1678408E-2],"categories":[],"categories_nodes":[],"categories_segments":[],"categories_sizes":[],"default_left":[0,0,0,0,0,0,0,0,0,0,0,0,0,0,0,0,0,0,0,0,0,0,0,0,0,0,0,0,0,0,0,0,0,0,0,0,0,0,0,0,0,0,0,0,0,0,0,0,0,0,0,0,0,0,0,0,0,0,0,0,0,0,0],"id":3,"left_children":[1,3,5,7,9,11,13,15,17,19,21,23,25,27,29,31,33,35,37,39,41,43,45,47,49,51,53,55,57,59,61,-1,-1,-1,-1,-1,-1,-1,-1,-1,-1,-1,-1,-1,-1,-1,-1,-1,-1,-1,-1,-1,-1,-1,-1,-1,-1,-1,-1,-1,-1,-1,-1],"loss_changes":[6.6300507E2,2.8538058E2,2.1333371E2,6.3323498E1,2.2442233E2,6.803815E1,7.723152E1,4.2558575E1,9.346733E0,1.0307367E2,2.36931E1,7.6435547E0,3.8138367E1,1.9774187E1,9.42255E0,1.3502106E1,1.7166704E1,1.1551712E1,2.9104557E0,3.2361206E1,2.8970642E1,8.8921385E0,1.7885273E1,2.6238866E0,3.4650345E0,2.0171047E1,1.888971E1,9.987782E0,2.5348377E0,4.130699E0,1.8444378E0,0E0,0E0,0E0,0E0,0E0,0E0,0E0,0E0,0E0,0E0,0E0,0E0,0E0,0E0,0E0,0E0,0E0,0E0,0E0,0E0,0E0,0E0,0E0,0E0,0E0,0E0,0E0,0E0,0E0,0E0,0E0,0E0],"parents":[2147483647,0,0,1,1,2,2,3,3,4,4,5,5,6,6,7,7,8,8,9,9,10,10,11,11,12,12,13,13,14,14,15,15,16,16,17,17,18,18,19,19,20,20,21,21,22,22,23,23,24,24,25,25,26,26,27,27,28,28,29,29,30,30],"right_children":[2,4,6,8,10,12,14,16,18,20,22,24,26,28,30,32,34,36,38,40,42,44,46,48,50,52,54,56,58,60,62,-1,-1,-1,-1,-1,-1,-1,-1,-1,-1,-1,-1,-1,-1,-1,-1,-1,-1,-1,-1,-1,-1,-1,-1,-1,-1,-1,-1,-1,-1,-1,-1],"split_conditions":[1.51E0,-7.485108E-1,3.5E1,2.27E4,9.8E1,1.5E1,4.5E1,1.5E-1,-9.350162E-1,7.89E5,-2.3931566E-1,2.45E0,5.51E1,1.229E6,3.92E0,1.4321739E-2,-9.7094184E-1,8.46E0,5.3571427E-1,-1.2053668E-1,3.2714286E-1,2.171E1,2E0,1.7E-1,1.91E5,4.654E1,2.8E1,1.207031E0,-9.7094184E-1,6.8E1,1.0234445E1,-5.1176853E-2,-2.801328E-1,2.4572426E-1,6.08462E-2,2.1534704E-1,4.466969E-1,9.7383015E-2,2.2600035E-1,1.8848408E-2,-1.6894506E-1,-2.5064015E-1,-3.7569946E-1,1.2813431E-1,-2.1283014E-2,8.026263E-3,-1.0451331E-1,7.39605E-2,-1.7772263E-1,6.0441125E-2,1.83943E-1,1.9287609E-1,-2.1110715E-1,3.9282516E-1,2.5967255E-1,-1.431003E-1,4.2825714E-2,-1.3867079E-2,1.3161112E-1,1.6176839E-1,8.628427E-2,-7.603528E-2,5.1678408E-2],"split_indices":[34,20,1,33,24,1,28,34,20,21,20,34,25,21,36,37,20,6,13,20,12,7,0,6,21,8,24,37,19,28,41,0,0,0,0,0,0,0,0,0,0,0,0,0,0,0,0,0,0,0,0,0,0,0,0,0,0,0,0,0,0,0,0],"split_type":[0,0,0,0,0,0,0,0,0,0,0,0,0,0,0,0,0,0,0,0,0,0,0,0,0,0,0,0,0,0,0,0,0,0,0,0,0,0,0,0,0,0,0,0,0,0,0,0,0,0,0,0,0,0,0,0,0,0,0,0,0,0,0],"sum_hessian":[3.8724E3,2.3745E3,1.4979E3,5.569E2,1.8176E3,8.485E2,6.494E2,4.042E2,1.527E2,1.1456E3,6.72E2,3.264E2,5.221E2,2.935E2,3.559E2,1.616E2,2.426E2,8.45E1,6.82E1,4.517E2,6.939E2,1.646E2,5.074E2,7.3E1,2.534E2,5.34E1,4.687E2,2.445E2,4.9E1,3.169E2,3.9E1,1.344E2,2.72E1,5.95E1,1.831E2,4.73E1,3.72E1,3.23E1,3.59E1,1.084E2,3.433E2,3.757E2,3.182E2,1.126E2,5.2E1,2.481E2,2.593E2,7E1,3E0,2.38E1,2.296E2,3.89E1,1.45E1,3.18E2,1.507E2,2.154E2,2.91E1,1.54E1,3.36E1,2.18E2,9.89E1,2.1E1,1.8E1],"tree_param":{"num_deleted":"0","num_feature":"43","num_nodes":"63","size_leaf_vector":"1"}},{"base_weights":[2.5126175E-3,-2.6482397E-1,3.2114932E-1,-4.4147804E-1,9.007156E-2,5.842749E-1,3.9932366E-2,2.694098E-2,-5.58992E-1,5.7101864E-1,-3.4748033E-2,2.8415215E-1,8.021425E-1,-1.886685E-1,3.4140655E-1,-1.0452852E0,8.1583165E-2,-7.7831644E-1,-4.1854253E-1,8.697402E-1,4.3375E-1,7.955871E-2,-2.3244895E-1,5.1842064E-2,4.0375608E-1,1.3602985E-2,8.527684E-1,-3.4791154E-1,1.2325604E-1,2.5612622E-1,5.256508E-1,-7.6779835E-2,-4.057633E-1,1.09300934E-1,-1.5632711E-2,-2.6735193E-1,-1.4961933E-1,-1.5579651E-1,-4.471182E-2,1.15912005E-1,3.2300466E-1,4.2634837E-2,1.719565E-1,8.522422E-2,-2.453556E-3,-1.0798074E-1,1.9499943E-2,-9.607982E-2,4.031952E-2,1.4421849E-1,7.3409826E-2,6.890364E-2,-2.8618863E-1,4.0208563E-1,2.3291174E-1,-1.2227527E-1,2.0605506E-2,-3.17486E-2,7.93521E-2,1.1348424E-1,3.1429276E-2,1.9929703E-1,9.8068304E-2],"categories":[],"categories_nodes":[],"categories_segments":[],"categories_sizes":[],"default_left":[0,0,0,0,0,0,0,0,0,0,0,0,0,0,0,0,0,0,0,0,0,0,0,0,0,0,0,0,0,0,0,0,0,0,0,0,0,0,0,0,0,0,0,0,0,0,0,0,0,0,0,0,0,0,0,0,0,0,0,0,0,0,0],"id":4,"left_children":[1,3,5,7,9,11,13,15,17,19,21,23,25,27,29,31,33,35,37,39,41,43,45,47,49,51,53,55,57,59,61,-1,-1,-1,-1,-1,-1,-1,-1,-1,-1,-1,-1,-1,-1,-1,-1,-1,-1,-1,-1,-1,-1,-1,-1,-1,-1,-1,-1,-1,-1,-1,-1],"loss_changes":[3.3003384E2,1.3212294E2,1.307709E2,7.745346E1,4.2102E1,5.947696E1,5.9023132E1,1.667176E1,3.431949E1,5.547985E0,1.2617184E1,1.0693041E1,2.1086365E1,2.424299E1,5.6679573E0,3.0008326E0,1.0236839E1,1.3372589E1,1.860347E1,4.035286E0,4.0256996E0,6.3545675E0,7.778199E0,4.104212E0,2.996975E0,7.0974226E0,1.7454956E1,8.05262E0,5.3800774E0,4.664112E0,2.9772797E0,0E0,0E0,0E0,0E0,0E0,0E0,0E0,0E0,0E0,0E0,0E0,0E0,0E0,0E0,0E0,0E0,0E0,0E0,0E0,0E0,0E0,0E0,0E0,0E0,0E0,0E0,0E0,0E0,0E0,0E0,0E0,0E0],"parents":[2147483647,0,0,1,1,2,2,3,3,4,4,5,5,6,6,7,7,8,8,9,9,10,10,11,11,12,12,13,13,14,14,15,15,16,16,17,17,18,18,19,19,20,20,21,21,22,22,23,23,24,24,25,25,26,26,27,27,28,28,29,29,30,30],"right_children":[2,4,6,8,10,12,14,16,18,20,22,24,26,28,30,32,34,36,38,40,42,44,46,48,50,52,54,56,58,60,62,-1,-1,-1,-1,-1,-1,-1,-1,-1,-1,-1,-1,-1,-1,-1,-1,-1,-1,-1,-1,-1,-1,-1,-1,-1,-1,-1,-1,-1,-1,-1,-1],"split_conditions":[9.3E-1,1.192E6,3.3E1,-8.2298386E-1,-8.2298386E-1,1.5E1,1.007E1,2.103E1,4.25E1,4.01E0,5E0,2.45E0,4.57193E-2,9.366404E0,4.966E1,3.6157143E0,5.13E1,6.39E1,2.9997143E1,2.0142858E-1,2.5E1,-1.2053668E-1,2.28E6,4.57193E-2,3.99E2,4.0090314E-4,-9.7094184E-1,1.229E6,-8.85456E-1,5.04E1,8.142857E-1,-7.6779835E-2,-4.057633E-1,1.09300934E-1,-1.5632711E-2,-2.6735193E-1,-1.4961933E-1,-1.5579651E-1,-4.471182E-2,1.15912005E-1,3.2300466E-1,4.2634837E-2,1.719565E-1,8.522422E-2,-2.453556E-3,-1.0798074E-1,1.9499943E-2,-9.607982E-2,4.031952E-2,1.4421849E-1,7.3409826E-2,6.890364E-2,-2.8618863E-1,4.0208563E-1,2.3291174E-1,-1.2227527E-1,2.0605506E-2,-3.17486E-2,7.93521E-2,1.1348424E-1,3.1429276E-2,1.9929703E-1,9.8068304E-2],"split_indices":[34,21,1,20,20,1,34,4,26,36,0,34,37,41,6,10,42,42,5,12,1,20,21,37,38,23,20,21,19,42,13,0,0,0,0,0,0,0,0,0,0,0,0,0,0,0,0,0,0,0,0,0,0,0,0,0,0,0,0,0,0,0,0],"split_type":[0,0,0,0,0,0,0,0,0,0,0,0,0,0,0,0,0,0,0,0,0,0,0,0,0,0,0,0,0,0,0,0,0,0,0,0,0,0,0,0,0,0,0,0,0,0,0,0,0,0,0,0,0,0,0,0,0,0,0,0,0,0,0],"sum_hessian":[3.8724E3,2.1058E3,1.7666E3,1.4058E3,7E2,9.121E2,8.545E2,2.821E2,1.1237E3,1.435E2,5.565E2,3.846E2,5.275E2,4.862E2,3.683E2,1.28E1,2.693E2,4.369E2,6.868E2,4.35E1,1E2,3.53E2,2.035E2,1.312E2,2.534E2,3.19E1,4.956E2,3.218E2,1.644E2,2.534E2,1.149E2,4.1E0,8.7E0,8.59E1,1.834E2,3.097E2,1.27200005E2,4.992E2,1.876E2,1.39E1,2.96E1,3.3E1,6.7E1,1.053E2,2.477E2,1.423E2,6.12E1,2.33E1,1.079E2,1.694E2,8.4E1,2.67E1,5.2E0,6.49E1,4.307E2,2.815E2,4.03E1,6.28E1,1.016E2,1.394E2,1.14E2,6.63E1,4.86E1],"tree_param":{"num_deleted":"0","num_feature":"43","num_nodes":"63","size_leaf_vector":"1"}},{"base_weights":[1.916114E-3,-1.4488731E-1,2.9894668E-1,-2.6814803E-1,1.0919171E-1,5.3371024E-1,1.4497916E-1,-3.477876E-2,-3.9385054E-1,4.190402E-1,-1.6147505E-3,6.8410593E-1,2.936198E-1,-6.312781E-2,2.6105067E-1,2.1981871E-1,-2.080665E-1,-2.6696438E-1,-6.228917E-1,2.4200314E-1,6.5821475E-1,8.892976E-2,-1.8545566E-1,-6.2561804E-1,7.0320237E-1,-1.4212401E-1,4.321566E-1,2.7557322E-1,-1.4306308E-1,2.2500198E-1,4.4517148E-1,9.0870805E-2,-3.8180105E-2,-1.23648755E-1,-2.2359122E-2,1.02999486E-1,-9.214674E-2,-9.214552E-2,-2.519303E-1,5.6161312E-3,1.2048682E-1,2.960198E-1,1.05171956E-1,2.16843E-2,2.6013964E-1,2.838958E-1,-6.546099E-2,-4.4286635E-2,-2.1246345E-1,2.4737784E-1,1.650807E-1,-2.9952312E-4,-1.6129248E-1,-6.2305093E-2,1.3892902E-1,3.0521965E-1,6.624665E-2,-6.783161E-2,1.6924452E-2,1.00495055E-1,3.665035E-2,7.4111104E-2,1.9337277E-1],"categories":[],"categories_nodes":[],"categories_segments":[],"categories_sizes":[],"default_left":[0,0,0,0,0,0,0,0,0,0,0,0,0,0,0,0,0,0,0,0,0,0,0,0,0,0,0,0,0,0,0,0,0,0,0,0,0,0,0,0,0,0,0,0,0,0,0,0,0,0,0,0,0,0,0,0,0,0,0,0,0,0,0],"id":5,"left_children":[1,3,5,7,9,11,13,15,17,19,21,23,25,27,29,31,33,35,37,39,41,43,45,47,49,51,53,55,57,59,61,-1,-1,-1,-1,-1,-1,-1,-1,-1,-1,-1,-1,-1,-1,-1,-1,-1,-1,-1,-1,-1,-1,-1,-1,-1,-1,-1,-1,-1,-1,-1,-1],"loss_changes":[1.6894333E2,8.123364E1,4.6243668E1,5.121125E1,2.9104942E1,1.8113403E1,1.874408E1,2.7063978E1,3.281346E1,9.295845E0,1.0426766E1,8.220871E0,1.1959663E1,7.5768714E0,3.2045517E0,7.204606E0,9.914331E0,1.8060432E1,2.7392822E1,4.622156E0,9.194691E0,5.3750005E0,7.867398E0,9.28489E-2,5.247467E0,2.695456E0,3.0617332E0,1.9482784E0,3.7548127E0,4.6911182E0,3.0212317E0,0E0,0E0,0E0,0E0,0E0,0E0,0E0,0E0,0E0,0E0,0E0,0E0,0E0,0E0,0E0,0E0,0E0,0E0,0E0,0E0,0E0,0E0,0E0,0E0,0E0,0E0,0E0,0E0,0E0,0E0,0E0,0E0],"parents":[2147483647,0,0,1,1,2,2,3,3,4,4,5,5,6,6,7,7,8,8,9,9,10,10,11,11,12,12,13,13,14,14,15,15,16,16,17,17,18,18,19,19,20,20,21,21,22,22,23,23,24,24,25,25,26,26,27,27,28,28,29,29,30,30],"right_children":[2,4,6,8,10,12,14,16,18,20,22,24,26,28,30,32,34,36,38,40,42,44,46,48,50,52,54,56,58,60,62,-1,-1,-1,-1,-1,-1,-1,-1,-1,-1,-1,-1,-1,-1,-1,-1,-1,-1,-1,-1,-1,-1,-1,-1,-1,-1,-1,-1,-1,-1,-1,-1],"split_conditions":[2.32E0,1.229E6,-2.3931566E-1,7.61E5,-6.6312265E-1,3.1E1,5.5E1,-2.3931566E-1,8E0,7.85E0,5E0,1.908E1,4.531417E-1,1.6E1,9.7094184E-1,1.277E1,6.6E-1,-9.7094184E-1,1.9834779E-1,2.205E1,2.9E1,4.4568695E1,3.1375883E-5,2E0,6.54E1,1.0546E2,3.33E0,4.2E-1,1.229E6,6.48E1,1.743E1,9.0870805E-2,-3.8180105E-2,-1.23648755E-1,-2.2359122E-2,1.02999486E-1,-9.214674E-2,-9.214552E-2,-2.519303E-1,5.6161312E-3,1.2048682E-1,2.960198E-1,1.05171956E-1,2.16843E-2,2.6013964E-1,2.838958E-1,-6.546099E-2,-4.4286635E-2,-2.1246345E-1,2.4737784E-1,1.650807E-1,-2.9952312E-4,-1.6129248E-1,-6.2305093E-2,1.3892902E-1,3.0521965E-1,6.624665E-2,-6.783161E-2,1.6924452E-2,1.00495055E-1,3.665035E-2,7.4111104E-2,1.9337277E-1],"split_indices":[34,21,20,21,20,1,28,20,0,6,0,4,37,1,19,8,34,20,16,4,1,18,23,0,25,8,34,13,21,25,34,0,0,0,0,0,0,0,0,0,0,0,0,0,0,0,0,0,0,0,0,0,0,0,0,0,0,0,0,0,0,0,0],"split_type":[0,0,0,0,0,0,0,0,0,0,0,0,0,0,0,0,0,0,0,0,0,0,0,0,0,0,0,0,0,0,0,0,0,0,0,0,0,0,0,0,0,0,0,0,0,0,0,0,0,0,0,0,0,0,0,0,0,0,0,0,0,0,0],"sum_hessian":[3.8724E3,2.5919E3,1.2805E3,1.7452E3,8.467E2,5.062E2,7.743E2,6.114E2,1.1338E3,2.223E2,6.244E2,3.101E2,1.961E2,2.774E2,4.969E2,2.475E2,3.639E2,7.31E2,4.028E2,1.289E2,9.34E1,4.187E2,2.057E2,4E0,3.061E2,4.73E1,1.488E2,5.25E1,2.249E2,4.174E2,7.95E1,1.998E2,4.77E1,1.431E2,2.208E2,4.47E1,6.863E2,1.65E2,2.378E2,5.42E1,7.47E1,4.41E1,4.93E1,4.11E2,7.7E0,5E0,2.007E2,1E0,3E0,1.682E2,1.379E2,3.56E1,1.17E1,6.6E0,1.422E2,2.4E0,5.0100002E1,1.587E2,6.62E1,2.006E2,2.168E2,4.1E1,3.85E1],"tree_param":{"num_deleted":"0","num_feature":"43","num_nodes":"63","size_leaf_vector":"1"}},{"base_weights":[1.7019497E-3,-1.7925404E-1,1.2801431E-1,-3.2280943E-1,-3.0280366E-3,3.2013577E-1,9.056716E-3,-6.198642E-1,-2.4853024E-1,2.192982E-1,-8.08428E-2,4.3862513E-1,1.4609036E-1,-7.3887475E-2,1.9449542E-1,-4.8646295E-1,-8.0822945E-1,-3.5242042E-1,8.804921E-2,1.093238E-1,4.790496E-1,-5.5211037E-2,-5.026638E-1,3.370497E-2,4.9996722E-1,-3.399407E-2,3.0291823E-1,6.142345E-2,-2.16244E-1,2.51644E-1,9.381244E-2,-1.3379802E-1,-3.8157612E-1,-1.7452249E-1,-2.9688218E-1,-2.4014245E-1,-9.8431274E-2,5.9192963E-2,-8.701329E-2,-1.1728354E-2,1.4646092E-1,4.2567205E-2,1.8784498E-1,-6.5765284E-2,4.2045163E-3,3.962512E-2,-1.6565686E-1,-1.3067045E-2,2.568229E-1,1.8552916E-1,1.0542654E-1,-6.186792E-2,9.4446816E-2,1.5413177E-1,6.030325E-2,-8.045462E-3,4.4335365E-2,-8.818177E-2,-6.8929987E-3,6.909967E-2,1.401723E-1,9.624058E-2,1.5312313E-2],"categories":[],"categories_nodes":[],"categories_segments":[],"categories_sizes":[],"default_left":[0,0,0,0,0,0,0,0,0,0,0,0,0,0,0,0,0,0,0,0,0,0,0,0,0,0,0,0,0,0,0,0,0,0,0,0,0,0,0,0,0,0,0,0,0,0,0,0,0,0,0,0,0,0,0,0,0,0,0,0,0,0,0],"id":6,"left_children":[1,3,5,7,9,11,13,15,17,19,21,23,25,27,29,31,33,35,37,39,41,43,45,47,49,51,53,55,57,59,61,-1,-1,-1,-1,-1,-1,-1,-1,-1,-1,-1,-1,-1,-1,-1,-1,-1,-1,-1,-1,-1,-1,-1,-1,-1,-1,-1,-1,-1,-1,-1,-1],"loss_changes":[8.855717E1,4.0291447E1,5.214376E1,1.9212387E1,1.2404718E1,1.7929092E1,2.1704746E1,4.0017395E0,2.4641014E1,5.258048E0,5.714509E0,1.2864471E1,1.0033474E1,1.8796041E1,2.4856625E0,2.7672005E0,2.340969E0,5.5988617E0,6.9478607E0,7.4361687E0,2.6389446E0,5.7002754E0,1.0254574E0,4.440463E0,7.7066727E0,1.0043801E1,3.9750767E0,3.819621E0,7.13183E0,1.1678829E0,1.5321571E0,0E0,0E0,0E0,0E0,0E0,0E0,0E0,0E0,0E0,0E0,0E0,0E0,0E0,0E0,0E0,0E0,0E0,0E0,0E0,0E0,0E0,0E0,0E0,0E0,0E0,0E0,0E0,0E0,0E0,0E0,0E0,0E0],"parents":[2147483647,0,0,1,1,2,2,3,3,4,4,5,5,6,6,7,7,8,8,9,9,10,10,11,11,12,12,13,13,14,14,15,15,16,16,17,17,18,18,19,19,20,20,21,21,22,22,23,23,24,24,25,25,26,26,27,27,28,28,29,29,30,30],"right_children":[2,4,6,8,10,12,14,16,18,20,22,24,26,28,30,32,34,36,38,40,42,44,46,48,50,52,54,56,58,60,62,-1,-1,-1,-1,-1,-1,-1,-1,-1,-1,-1,-1,-1,-1,-1,-1,-1,-1,-1,-1,-1,-1,-1,-1,-1,-1,-1,-1,-1,-1,-1,-1],"split_conditions":[4.6E-1,1.122E6,-2.3931566E-1,-4.6472317E-1,1.9750041E-1,3E1,1.277E1,1.428E1,1.46E0,6.1115E4,4.1695964E-1,3.2273628E-2,4.3352273E-1,3.4E-1,1.63E0,1.0247E2,5.63E0,3.421E3,2.06E0,3.1301428E1,2.84E2,6.594126E-5,3.4E1,2.645143E1,4.071E1,9.8E1,4.025E1,3.663E3,9.366404E0,3.376143E1,-1.8369701E-16,-1.3379802E-1,-3.8157612E-1,-1.7452249E-1,-2.9688218E-1,-2.4014245E-1,-9.8431274E-2,5.9192963E-2,-8.701329E-2,-1.1728354E-2,1.4646092E-1,4.2567205E-2,1.8784498E-1,-6.5765284E-2,4.2045163E-3,3.962512E-2,-1.6565686E-1,-1.3067045E-2,2.568229E-1,1.8552916E-1,1.0542654E-1,-6.186792E-2,9.4446816E-2,1.5413177E-1,6.030325E-2,-8.045462E-3,4.4335365E-2,-8.818177E-2,-6.8929987E-3,6.909967E-2,1.401723E-1,9.624058E-2,1.5312313E-2],"split_indices":[34,21,20,19,16,1,34,8,6,33,14,37,37,8,36,7,35,33,8,5,38,23,1,4,3,24,7,33,41,5,20,0,0,0,0,0,0,0,0,0,0,0,0,0,0,0,0,0,0,0,0,0,0,0,0,0,0,0,0,0,0,0,0],"split_type":[0,0,0,0,0,0,0,0,0,0,0,0,0,0,0,0,0,0,0,0,0,0,0,0,0,0,0,0,0,0,0,0,0,0,0,0,0,0,0,0,0,0,0,0,0,0,0,0,0,0,0,0,0,0,0,0,0,0,0,0,0,0,0],"sum_hessian":[3.8724E3,1.5917E3,2.2807E3,8.767E2,7.15E2,8.715E2,1.4092E3,1.739E2,7.028E2,1.849E2,5.301E2,5.176E2,3.539E2,9.741E2,4.351E2,1.039E2,7E1,5.37E2,1.658E2,1.309E2,5.4E1,5.008E2,2.93E1,6.83E1,4.493E2,1.651E2,1.888E2,4.997E2,4.744E2,2.766E2,1.585E2,1.003E2,3.6E0,3.3E1,3.7E1,2.6E1,5.11E2,1.29E2,3.68E1,9.47E1,3.62E1,1.7E1,3.7E1,1.48E2,3.528E2,2E0,2.73E1,6.33E1,5E0,2.482E2,2.011E2,1.108E2,5.43E1,6.02E1,1.286E2,2.475E2,2.522E2,3.38E2,1.364E2,2.536E2,2.3E1,2.41E1,1.344E2],"tree_param":{"num_deleted":"0","num_feature":"43","num_nodes":"63","size_leaf_vector":"1"}},{"base_weights":[1.1573219E-3,-6.843846E-2,1.6929805E-1,4.773744E-2,-1.4766759E-1,3.5161617E-1,1.16633944E-1,2.2963656E-1,-2.970132E-2,-2.3835674E-1,-5.746299E-2,1.45652E-1,4.8846427E-1,9.969753E-2,4.3673733E-1,2.7904326E-1,-3.1692132E-1,-2.8739038E-1,3.1081386E-2,-1.23368956E-1,-3.7476978E-1,-2.572611E-1,-2.8607338E-3,2.7739483E-1,4.297406E-2,6.072095E-1,2.604347E-1,-1.1482111E-1,1.1953918E-1,-5.285108E-2,5.3079057E-1,-4.3906122E-2,1.0291307E-1,-2.126268E-1,-5.3352345E-2,-4.3847583E-2,-1.4021395E-1,-1.4657785E-1,1.8314222E-2,4.8559833E-2,-6.583583E-2,-1.5633944E-1,-5.2248348E-2,-6.2007498E-2,-2.2463198E-1,-2.7053695E-2,4.1814417E-2,1.3509224E-1,2.2292329E-2,-2.762287E-2,5.311163E-2,1.9465339E-1,9.082584E-4,-4.0678915E-2,1.21760994E-1,4.112956E-3,-1.0502152E-1,-5.4916747E-2,3.9180093E-2,8.77111E-3,-5.9823085E-2,1.2283557E-1,3.268396E-1],"categories":[],"categories_nodes":[],"categories_segments":[],"categories_sizes":[],"default_left":[0,0,0,0,0,0,0,0,0,0,0,0,0,0,0,0,0,0,0,0,0,0,0,0,0,0,0,0,0,0,0,0,0,0,0,0,0,0,0,0,0,0,0,0,0,0,0,0,0,0,0,0,0,0,0,0,0,0,0,0,0,0,0],"id":7,"left_children":[1,3,5,7,9,11,13,15,17,19,21,23,25,27,29,31,33,35,37,39,41,43,45,47,49,51,53,55,57,59,61,-1,-1,-1,-1,-1,-1,-1,-1,-1,-1,-1,-1,-1,-1,-1,-1,-1,-1,-1,-1,-1,-1,-1,-1,-1,-1,-1,-1,-1,-1,-1,-1],"loss_changes":[4.5337677E1,2.5229256E1,1.0849144E1,1.5667683E1,1.3315739E1,7.0795956E0,4.735427E0,9.056337E0,1.2237066E1,1.2693798E1,8.925358E0,1.3773105E0,3.9576302E0,3.5827198E0,2.0541363E0,8.356718E0,1.3998542E0,3.7218447E0,9.881033E0,1.2154661E1,1.0802326E1,4.209861E0,8.006295E0,1.5397499E0,1.0827135E0,2.4934273E0,3.1537466E0,2.1667445E0,2.5944338E0,1.02076314E-1,2.0621052E0,0E0,0E0,0E0,0E0,0E0,0E0,0E0,0E0,0E0,0E0,0E0,0E0,0E0,0E0,0E0,0E0,0E0,0E0,0E0,0E0,0E0,0E0,0E0,0E0,0E0,0E0,0E0,0E0,0E0,0E0,0E0,0E0],"parents":[2147483647,0,0,1,1,2,2,3,3,4,4,5,5,6,6,7,7,8,8,9,9,10,10,11,11,12,12,13,13,14,14,15,15,16,16,17,17,18,18,19,19,20,20,21,21,22,22,23,23,24,24,25,25,26,26,27,27,28,28,29,29,30,30],"right_children":[2,4,6,8,10,12,14,16,18,20,22,24,26,28,30,32,34,36,38,40,42,44,46,48,50,52,54,56,58,60,62,-1,-1,-1,-1,-1,-1,-1,-1,-1,-1,-1,-1,-1,-1,-1,-1,-1,-1,-1,-1,-1,-1,-1,-1,-1,-1,-1,-1,-1,-1,-1,-1],"split_conditions":[3.04E0,-2.3931566E-1,-6.6312265E-1,2.92E0,5.87E1,7.73E5,6.4E1,2.317E1,7.2363396E0,3.73E2,7.2800083E0,1.63E0,6.48E1,2.9727873E-1,1.5E1,8E-2,6.8243737E0,6.522143E1,2.99E0,3.307954E-5,8.889446E0,5.1931614E-1,4.1E1,8.495857E1,2.8E0,3.26E0,1.967E1,5.0781225E-4,1.02E0,2.3257143E0,3.3340842E-1,-4.3906122E-2,1.0291307E-1,-2.126268E-1,-5.3352345E-2,-4.3847583E-2,-1.4021395E-1,-1.4657785E-1,1.8314222E-2,4.8559833E-2,-6.583583E-2,-1.5633944E-1,-5.2248348E-2,-6.2007498E-2,-2.2463198E-1,-2.7053695E-2,4.1814417E-2,1.3509224E-1,2.2292329E-2,-2.762287E-2,5.311163E-2,1.9465339E-1,9.082584E-4,-4.0678915E-2,1.21760994E-1,4.112956E-3,-1.0502152E-1,-5.4916747E-2,3.9180093E-2,8.77111E-3,-5.9823085E-2,1.2283557E-1,3.268396E-1],"split_indices":[34,20,20,36,42,21,32,8,41,38,41,36,40,37,1,34,41,9,36,23,41,14,1,9,36,10,6,23,10,10,17,0,0,0,0,0,0,0,0,0,0,0,0,0,0,0,0,0,0,0,0,0,0,0,0,0,0,0,0,0,0,0,0],"split_type":[0,0,0,0,0,0,0,0,0,0,0,0,0,0,0,0,0,0,0,0,0,0,0,0,0,0,0,0,0,0,0,0,0,0,0,0,0,0,0,0,0,0,0,0,0,0,0,0,0,0,0,0,0,0,0,0,0,0,0,0,0,0,0],"sum_hessian":[3.8724E3,2.7392E3,1.1332E3,1.1108E3,1.6284E3,2.527E2,8.805E2,3.311E2,7.797E2,8.112E2,8.172E2,1.017E2,1.51E2,8.375E2,4.3E1,3.041E2,2.7E1,1.481E2,6.316E2,4.412E2,3.7E2,1.746E2,6.426E2,4.38E1,5.79E1,9.82E1,5.28E1,7.05E1,7.67E2,7E0,3.6E1,3.96E1,2.645E2,6E0,2.1E1,8.4E1,6.41E1,3.3600002E1,5.98E2,1.11E2,3.302E2,2.13E2,1.57E2,1.596E2,1.5E1,3.984E2,2.442E2,2.3E1,2.08E1,2.9E1,2.89E1,9.18E1,6.4E0,1.4200001E1,3.8600002E1,4.62E1,2.43E1,2.65E1,7.405E2,5E0,2E0,3.1E1,5E0],"tree_param":{"num_deleted":"0","num_feature":"43","num_nodes":"63","size_leaf_vector":"1"}},{"base_weights":[7.389545E-4,-9.697758E-2,6.894791E-2,-1.530585E-1,6.0430255E-2,1.4134116E-1,-4.5567863E-2,2.2412466E-1,-1.6890909E-1,1.4770594E-1,-7.815474E-2,4.3632874E-1,1.2222608E-1,-1.7712831E-1,3.0021258E-2,4.044237E-1,-1.02470614E-1,1.0147499E-1,-1.8951102E-1,8.455155E-2,4.8106393E-1,-3.8883248E-1,1.199455E-2,9.4885755E-1,3.757303E-1,1.727263E-1,1.9373143E-2,-4.8994444E-2,-3.8606974E-1,8.254758E-2,-1.9184001E-1,1.3938956E-1,4.90392E-3,-8.847931E-3,-1.2086322E-1,-2.3736523E-2,1.4623044E-1,-9.626112E-2,-4.4938028E-2,-2.0465206E-3,7.906266E-2,-1.7861951E-2,1.6441421E-1,-1.4781784E-1,-2.023669E-2,-4.5671216E-3,1.7501631E-1,3.0508804E-1,9.8712645E-2,1.3602363E-1,3.229133E-2,2.5596503E-2,7.871029E-2,-1.1057801E-3,2.2992481E-1,2.5261706E-2,-4.1536454E-2,-1.7216621E-1,-2.7378937E-2,1.1119491E-2,1.0977521E-1,-7.996209E-2,3.3796218E-3],"categories":[],"categories_nodes":[],"categories_segments":[],"categories_sizes":[],"default_left":[0,0,0,0,0,0,0,0,0,0,0,0,0,0,0,0,0,0,0,0,0,0,0,0,0,0,0,0,0,0,0,0,0,0,0,0,0,0,0,0,0,0,0,0,0,0,0,0,0,0,0,0,0,0,0,0,0,0,0,0,0,0,0],"id":8,"left_children":[1,3,5,7,9,11,13,15,17,19,21,23,25,27,29,31,33,35,37,39,41,43,45,47,49,51,53,55,57,59,61,-1,-1,-1,-1,-1,-1,-1,-1,-1,-1,-1,-1,-1,-1,-1,-1,-1,-1,-1,-1,-1,-1,-1,-1,-1,-1,-1,-1,-1,-1,-1,-1],"loss_changes":[2.582345E1,1.406893E1,1.8922123E1,7.0602856E0,5.0806007E0,7.830717E0,8.801263E0,2.856136E0,6.301567E0,5.380479E0,4.5586643E0,2.2741337E0,6.824293E0,8.6259165E0,6.5721273E0,7.16733E-1,3.7834623E-1,5.649665E0,5.421215E0,3.562274E0,1.5100594E0,1.1887999E0,1.9840288E0,1.572895E-2,1.5631199E0,6.884222E0,7.478961E0,2.4103768E0,6.7359734E0,5.858392E0,1.641582E0,0E0,0E0,0E0,0E0,0E0,0E0,0E0,0E0,0E0,0E0,0E0,0E0,0E0,0E0,0E0,0E0,0E0,0E0,0E0,0E0,0E0,0E0,0E0,0E0,0E0,0E0,0E0,0E0,0E0,0E0,0E0,0E0],"parents":[2147483647,0,0,1,1,2,2,3,3,4,4,5,5,6,6,7,7,8,8,9,9,10,10,11,11,12,12,13,13,14,14,15,15,16,16,17,17,18,18,19,19,20,20,21,21,22,22,23,23,24,24,25,25,26,26,27,27,28,28,29,29,30,30],"right_children":[2,4,6,8,10,12,14,16,18,20,22,24,26,28,30,32,34,36,38,40,42,44,46,48,50,52,54,56,58,60,62,-1,-1,-1,-1,-1,-1,-1,-1,-1,-1,-1,-1,-1,-1,-1,-1,-1,-1,-1,-1,-1,-1,-1,-1,-1,-1,-1,-1,-1,-1,-1,-1],"split_conditions":[4.6E-1,1.9699E4,3.6E1,1.29E0,2.332766E-1,-9.7094184E-1,5.78E1,3.6E-1,-9.7094184E-1,3.7251484E1,2.3931566E-1,2E-1,3.99E2,5.4E1,4.01E0,4.082E1,2.315E1,3.6553963E1,2.99E0,6.1115E4,2E-1,2.523E1,5.4822993E-1,6.02E1,5.683E1,2.9137142E1,1E0,1.844E1,1.4337E4,3.62E0,7.02E1,1.3938956E-1,4.90392E-3,-8.847931E-3,-1.2086322E-1,-2.3736523E-2,1.4623044E-1,-9.626112E-2,-4.4938028E-2,-2.0465206E-3,7.906266E-2,-1.7861951E-2,1.6441421E-1,-1.4781784E-1,-2.023669E-2,-4.5671216E-3,1.7501631E-1,3.0508804E-1,9.8712645E-2,1.3602363E-1,3.229133E-2,2.5596503E-2,7.871029E-2,-1.1057801E-3,2.2992481E-1,2.5261706E-2,-4.1536454E-2,-1.7216621E-1,-2.7378937E-2,1.1119491E-2,1.0977521E-1,-7.996209E-2,3.3796218E-3],"split_indices":[34,33,1,36,16,20,25,13,20,18,20,7,38,25,36,3,4,18,36,33,6,11,17,25,6,5,19,8,33,36,25,0,0,0,0,0,0,0,0,0,0,0,0,0,0,0,0,0,0,0,0,0,0,0,0,0,0,0,0,0,0,0,0],"split_type":[0,0,0,0,0,0,0,0,0,0,0,0,0,0,0,0,0,0,0,0,0,0,0,0,0,0,0,0,0,0,0,0,0,0,0,0,0,0,0,0,0,0,0,0,0,0,0,0,0,0,0,0,0,0,0,0,0,0,0,0,0,0,0],"sum_hessian":[3.8724E3,1.5917E3,2.2807E3,1.1736E3,4.181E2,1.3972E3,8.835E2,4.6800003E1,1.1268E3,2.565E2,1.616E2,8.37E1,1.3135E3,3.219E2,5.616E2,3.0000002E1,1.6800001E1,7.95E1,1.0473E3,2.167E2,3.98E1,3.56E1,1.26E2,7.3E0,7.64E1,8.805E2,4.33E2,2.003E2,1.216E2,4.546E2,1.07E2,2.5800001E1,4.2000003E0,1.4400001E1,2.4E0,5.47E1,2.48E1,2.415E2,8.058E2,1.441E2,7.26E1,4.4E0,3.54E1,2.65E1,9.1E0,1.212E2,4.8E0,6E0,1.3E0,5.87E1,1.77E1,4.468E2,4.337E2,4.21E2,1.2E1,8.05E1,1.198E2,7.37E1,4.79E1,3.927E2,6.19E1,7.8E1,2.9E1],"tree_param":{"num_deleted":"0","num_feature":"43","num_nodes":"63","size_leaf_vector":"1"}},{"base_weights":[7.6398527E-4,9.551776E-2,-4.1752204E-2,2.2026624E-1,4.4923037E-2,-1.8618938E-1,-1.9320222E-2,-2.518451E-2,2.4364823E-1,-1.1505108E-1,7.857399E-2,-3.210034E-1,-6.443759E-2,-8.174765E-2,4.819367E-2,-6.0876226E-1,1.2744533E-1,3.0606452E-1,1.3339546E-1,-1.7490785E-1,7.7691175E-2,5.372652E-2,2.2115895E-1,-5.096727E-1,-2.3561683E-1,-2.1305928E-2,-4.5172822E-1,-1.217897E-1,2.6250761E-2,1.6053016E-1,5.8744294E-3,-3.60429E-2,-2.1516275E-1,6.775545E-2,-6.851297E-2,1.5140031E-1,7.415717E-2,4.769364E-2,-1.7044428E-1,-2.177959E-2,-8.488659E-2,4.4522446E-2,-9.247174E-2,2.417129E-2,-3.8599312E-2,4.5119353E-2,1.2814854E-1,-1.628402E-1,1.779718E-1,-7.676656E-2,8.3448194E-2,1.3708616E-2,-4.9207803E-2,-2.0311175E-1,9.37166E-3,-1.1938716E-1,-2.9966524E-2,2.7449644E-1,-2.2938573E-3,1.8379442E-2,1.017357E-1,-3.290649E-2,2.1580227E-2],"categories":[],"categories_nodes":[],"categories_segments":[],"categories_sizes":[],"default_left":[0,0,0,0,0,0,0,0,0,0,0,0,0,0,0,0,0,0,0,0,0,0,0,0,0,0,0,0,0,0,0,0,0,0,0,0,0,0,0,0,0,0,0,0,0,0,0,0,0,0,0,0,0,0,0,0,0,0,0,0,0,0,0],"id":9,"left_children":[1,3,5,7,9,11,13,15,17,19,21,23,25,27,29,31,33,35,37,39,41,43,45,47,49,51,53,55,57,59,61,-1,-1,-1,-1,-1,-1,-1,-1,-1,-1,-1,-1,-1,-1,-1,-1,-1,-1,-1,-1,-1,-1,-1,-1,-1,-1,-1,-1,-1,-1,-1,-1],"loss_changes":[1.5608251E1,7.564042E0,8.661492E0,1.9918747E0,4.611746E0,5.8784513E0,9.765227E0,2.8387964E0,2.133747E0,1.732591E0,2.4929304E0,2.623415E0,3.1658995E0,5.2085714E0,5.29168E0,2.635615E-1,9.409619E-1,2.2254543E0,2.172268E0,1.2396421E0,1.0282507E0,2.9647233E0,1.4605093E0,2.2292538E0,1.3116207E0,1.6531897E0,2.0886872E0,5.272579E0,9.839953E0,5.379076E0,6.189168E0,0E0,0E0,0E0,0E0,0E0,0E0,0E0,0E0,0E0,0E0,0E0,0E0,0E0,0E0,0E0,0E0,0E0,0E0,0E0,0E0,0E0,0E0,0E0,0E0,0E0,0E0,0E0,0E0,0E0,0E0,0E0,0E0],"parents":[2147483647,0,0,1,1,2,2,3,3,4,4,5,5,6,6,7,7,8,8,9,9,10,10,11,11,12,12,13,13,14,14,15,15,16,16,17,17,18,18,19,19,20,20,21,21,22,22,23,23,24,24,25,25,26,26,27,27,28,28,29,29,30,30],"right_children":[2,4,6,8,10,12,14,16,18,20,22,24,26,28,30,32,34,36,38,40,42,44,46,48,50,52,54,56,58,60,62,-1,-1,-1,-1,-1,-1,-1,-1,-1,-1,-1,-1,-1,-1,-1,-1,-1,-1,-1,-1,-1,-1,-1,-1,-1,-1,-1,-1,-1,-1,-1,-1],"split_conditions":[2E0,-5.6806475E-1,-8.85456E-1,1.2428571E-1,7.3284373E0,1.4E0,3.2273628E-2,1.8216723E-1,2.9E1,2.27E4,6.92E1,9.37E5,8.8E1,9.5E-1,2.3000169E-1,3.513E1,2.5345927E-1,8.120292E0,3.9061478E1,1.18E0,3.334E1,3.891821E-2,8.85456E-1,6.62355E-1,5.0646526E-1,9.887E1,9.74E5,1.9266452E-1,1.1285714E-1,6.53E0,5.78E1,-3.60429E-2,-2.1516275E-1,6.775545E-2,-6.851297E-2,1.5140031E-1,7.415717E-2,4.769364E-2,-1.7044428E-1,-2.177959E-2,-8.488659E-2,4.4522446E-2,-9.247174E-2,2.417129E-2,-3.8599312E-2,4.5119353E-2,1.2814854E-1,-1.628402E-1,1.779718E-1,-7.676656E-2,8.3448194E-2,1.3708616E-2,-4.9207803E-2,-2.0311175E-1,9.37166E-3,-1.1938716E-1,-2.9966524E-2,2.7449644E-1,-2.2938573E-3,1.8379442E-2,1.017357E-1,-3.290649E-2,2.1580227E-2],"split_indices":[36,20,19,13,41,34,37,16,1,33,42,21,31,6,16,3,14,41,18,11,3,23,19,16,17,8,21,17,13,6,25,0,0,0,0,0,0,0,0,0,0,0,0,0,0,0,0,0,0,0,0,0,0,0,0,0,0,0,0,0,0,0,0],"split_type":[0,0,0,0,0,0,0,0,0,0,0,0,0,0,0,0,0,0,0,0,0,0,0,0,0,0,0,0,0,0,0,0,0,0,0,0,0,0,0,0,0,0,0,0,0,0,0,0,0,0,0,0,0,0,0,0,0,0,0,0,0,0,0],"sum_hessian":[3.8724E3,1.199E3,2.6734E3,3.45E2,8.54E2,3.584E2,2.315E3,3E1,3.15E2,1.48E2,7.06E2,1.693E2,1.891E2,1.2027E3,1.1123E3,5.6E0,2.44E1,2E2,1.15E2,1.13E2,3.5E1,6.024E2,1.03600006E2,5.12E1,1.181E2,1.711E2,1.8E1,8.773E2,3.254E2,3.036E2,8.087E2,1.4E0,4.2E0,1.94E1,5E0,4.4E1,1.56E2,1.11700005E2,3.3E0,5.89E1,5.41E1,3.01E1,4.9E0,5.256E2,7.68E1,7.84E1,2.52E1,5.02E1,1E0,1.141E2,4E0,1.169E2,5.42E1,1.2E1,6E0,6.32E1,8.141E2,1.1E1,3.144E2,1.96E2,1.076E2,2.939E2,5.148E2],"tree_param":{"num_deleted":"0","num_feature":"43","num_nodes":"63","size_leaf_vector":"1"}},{"base_weights":[5.036518E-4,-3.6306832E-2,6.674088E-2,1.6157934E-1,-4.8439533E-2,1.4545457E-1,1.4153171E-2,-1.2544294E-1,3.0490306E-1,-7.988525E-2,2.3533102E-2,2.758571E-1,8.312348E-2,-1.1626178E-2,1.1746485E-1,4.7362024E-1,-2.4424893E-1,-2.117945E-2,3.800391E-1,-7.4805347E-3,-1.2769125E-1,-2.530826E-1,3.560449E-2,4.9108568E-1,1.6898686E-1,2.9295683E-1,4.858498E-2,-4.692409E-3,-4.3171197E-1,-1.2010391E-1,1.739966E-1,1.611502E-1,6.6653475E-2,5.125263E-3,-1.4030267E-1,8.5200205E-2,-8.068406E-2,5.707199E-2,1.483143E-1,2.8917987E-2,-5.010631E-2,-5.027407E-2,1.2627532E-2,-1.851835E-1,6.0415436E-2,3.4724165E-2,-4.182962E-3,1.8381302E-1,5.4409284E-2,6.0371596E-2,-8.1135504E-2,1.2388595E-1,-3.2408513E-2,2.3758093E-2,-3.511628E-2,3.3300493E-2,-7.0925807E-3,-1.8084705E-1,9.1467164E-2,-8.564958E-2,3.0668754E-2,1.0231665E-1,2.6868543E-2],"categories":[],"categories_nodes":[],"categories_segments":[],"categories_sizes":[],"default_left":[0,0,0,0,0,0,0,0,0,0,0,0,0,0,0,0,0,0,0,0,0,0,0,0,0,0,0,0,0,0,0,0,0,0,0,0,0,0,0,0,0,0,0,0,0,0,0,0,0,0,0,0,0,0,0,0,0,0,0,0,0,0,0],"id":10,"left_children":[1,3,5,7,9,11,13,15,17,19,21,23,25,27,29,31,33,35,37,39,41,43,45,47,49,51,53,55,57,59,61,-1,-1,-1,-1,-1,-1,-1,-1,-1,-1,-1,-1,-1,-1,-1,-1,-1,-1,-1,-1,-1,-1,-1,-1,-1,-1,-1,-1,-1,-1,-1,-1],"loss_changes":[9.446642E0,5.9870133E0,5.7268324E0,5.9661045E0,5.314362E0,4.48168E0,2.2140417E0,3.5817723E0,2.3699026E0,5.6542463E0,2.3948236E0,4.029686E0,2.7136612E0,1.9373019E0,2.250307E0,1.4871478E-2,2.4194467E0,1.5130411E0,1.6073847E0,1.0801209E1,6.6711636E0,5.0897627E0,2.7236571E0,2.1038532E0,1.7693195E0,2.5947986E0,1.6539766E0,1.4408041E0,1.5450399E0,1.2242994E0,1.8666553E0,0E0,0E0,0E0,0E0,0E0,0E0,0E0,0E0,0E0,0E0,0E0,0E0,0E0,0E0,0E0,0E0,0E0,0E0,0E0,0E0,0E0,0E0,0E0,0E0,0E0,0E0,0E0,0E0,0E0,0E0,0E0,0E0],"parents":[2147483647,0,0,1,1,2,2,3,3,4,4,5,5,6,6,7,7,8,8,9,9,10,10,11,11,12,12,13,13,14,14,15,15,16,16,17,17,18,18,19,19,20,20,21,21,22,22,23,23,24,24,25,25,26,26,27,27,28,28,29,29,30,30],"right_children":[2,4,6,8,10,12,14,16,18,20,22,24,26,28,30,32,34,36,38,40,42,44,46,48,50,52,54,56,58,60,62,-1,-1,-1,-1,-1,-1,-1,-1,-1,-1,-1,-1,-1,-1,-1,-1,-1,-1,-1,-1,-1,-1,-1,-1,-1,-1,-1,-1,-1,-1,-1,-1],"split_conditions":[4.5E1,-9.7094184E-1,6E0,-9.9270886E-1,6.27E1,4.7E1,2.430857E1,2.251E1,2.73E2,9.5E-1,-9.350162E-1,-4.6472317E-1,8.7E5,4.542529E1,3.25E1,8.46E0,3.663E1,1.1E0,2.375E1,3.99E2,1.122E6,2.32E0,-1.2053668E-1,3.73E2,3.0474285E1,4.1E1,4.071E1,2.8195505E1,1.8E1,8.254429E1,2.485E1,1.611502E-1,6.6653475E-2,5.125263E-3,-1.4030267E-1,8.5200205E-2,-8.068406E-2,5.707199E-2,1.483143E-1,2.8917987E-2,-5.010631E-2,-5.027407E-2,1.2627532E-2,-1.851835E-1,6.0415436E-2,3.4724165E-2,-4.182962E-3,1.8381302E-1,5.4409284E-2,6.0371596E-2,-8.1135504E-2,1.2388595E-1,-3.2408513E-2,2.3758093E-2,-3.511628E-2,3.3300493E-2,-7.0925807E-3,-1.8084705E-1,9.1467164E-2,-8.564958E-2,3.0668754E-2,1.0231665E-1,2.6868543E-2],"split_indices":[28,20,0,20,25,42,4,4,38,11,20,20,21,18,3,6,3,27,4,38,21,7,20,38,2,1,3,18,1,9,4,0,0,0,0,0,0,0,0,0,0,0,0,0,0,0,0,0,0,0,0,0,0,0,0,0,0,0,0,0,0,0,0],"split_type":[0,0,0,0,0,0,0,0,0,0,0,0,0,0,0,0,0,0,0,0,0,0,0,0,0,0,0,0,0,0,0,0,0,0,0,0,0,0,0,0,0,0,0,0,0,0,0,0,0,0,0,0,0,0,0,0,0,0,0,0,0,0,0],"sum_hessian":[3.8724E3,2.4894E3,1.383E3,1.431E2,2.3463E3,5.532E2,8.298E2,4.77E1,9.54E1,1.6328E3,7.135E2,1.778E2,3.754E2,6.648E2,1.65E2,7.4E0,4.03E1,1.8E1,7.74E1,6.498E2,9.83E2,2.9E1,6.845E2,5.78E1,1.2E2,5.2E1,3.234E2,6.55E2,9.8E0,3.15E1,1.335E2,5E0,2.4E0,1.9E1,2.13E1,8E0,1E1,3.01E1,4.73E1,3.938E2,2.56E2,7.96E2,1.87E2,1.59E1,1.31E1,2.61E2,4.235E2,4.08E1,1.7E1,1.12299995E2,7.7E0,4E1,1.2E1,2.734E2,5E1,9.15E1,5.635E2,8.1E0,1.7E0,1.79E1,1.36E1,4.38E1,8.97E1],"tree_param":{"num_deleted":"0","num_feature":"43","num_nodes":"63","size_leaf_vector":"1"}},{"base_weights":[4.7080967E-4,-4.378967E-2,3.3670954E-2,-8.439436E-2,3.7425455E-2,1.9071881E-1,2.4005853E-2,1.5948681E-2,-1.4525792E-1,-6.68551E-2,8.311675E-2,-1.2801308E-2,2.9144204E-1,4.215399E-2,-5.430927E-2,-1.6698027E-1,6.536762E-2,-6.683025E-2,-3.058794E-1,-1.4234161E-1,8.291549E-2,1.4441302E-1,-8.218237E-2,3.6783355E-1,-8.010773E-2,-1.33306E-2,3.6149496E-1,1.008989E-1,7.959133E-3,-1.4959587E-1,3.745503E-2,1.280379E-3,-7.465611E-2,2.6105164E-2,-6.0137372E-2,-4.095771E-2,1.1365351E-2,4.2435013E-2,-1.1609216E-1,-1.0727563E-1,-2.5553329E-2,2.4959016E-1,-9.233867E-3,-8.561021E-3,5.885711E-2,-6.3813165E-2,6.957186E-3,1.6501766E-1,5.1977124E-2,3.6096167E-2,-5.0156273E-2,-6.0910974E-2,5.3356968E-2,1.3431393E-1,4.32472E-2,7.9292245E-2,2.0662384E-2,1.103413E-1,-2.0986733E-3,-3.38191E-2,-1.5738943E-1,1.767569E-1,5.2371277E-3],"categories":[],"categories_nodes":[],"categories_segments":[],"categories_sizes":[],"default_left":[0,0,0,0,0,0,0,0,0,0,0,0,0,0,0,0,0,0,0,0,0,0,0,0,0,0,0,0,0,0,0,0,0,0,0,0,0,0,0,0,0,0,0,0,0,0,0,0,0,0,0,0,0,0,0,0,0,0,0,0,0,0,0],"id":11,"left_children":[1,3,5,7,9,11,13,15,17,19,21,23,25,27,29,31,33,35,37,39,41,43,45,47,49,51,53,55,57,59,61,-1,-1,-1,-1,-1,-1,-1,-1,-1,-1,-1,-1,-1,-1,-1,-1,-1,-1,-1,-1,-1,-1,-1,-1,-1,-1,-1,-1,-1,-1,-1,-1],"loss_changes":[5.693259E0,5.4793425E0,3.355713E0,6.7654696E0,2.6461608E0,2.6317291E0,2.9679193E0,3.7987394E0,8.664048E0,1.9269813E0,3.9208791E0,1.1413383E0,1.8366671E0,3.4032645E0,3.4419591E0,1.2545102E0,1.9200512E0,3.3951595E0,8.249468E0,1.3599124E0,4.913991E0,2.5290833E0,1.4491181E0,1.4225858E-1,6.7810404E-1,6.5269023E-1,1.2434015E0,3.2440748E0,5.7724895E0,2.6092548E0,2.207459E0,0E0,0E0,0E0,0E0,0E0,0E0,0E0,0E0,0E0,0E0,0E0,0E0,0E0,0E0,0E0,0E0,0E0,0E0,0E0,0E0,0E0,0E0,0E0,0E0,0E0,0E0,0E0,0E0,0E0,0E0,0E0,0E0],"parents":[2147483647,0,0,1,1,2,2,3,3,4,4,5,5,6,6,7,7,8,8,9,9,10,10,11,11,12,12,13,13,14,14,15,15,16,16,17,17,18,18,19,19,20,20,21,21,22,22,23,23,24,24,25,25,26,26,27,27,28,28,29,29,30,30],"right_children":[2,4,6,8,10,12,14,16,18,20,22,24,26,28,30,32,34,36,38,40,42,44,46,48,50,52,54,56,58,60,62,-1,-1,-1,-1,-1,-1,-1,-1,-1,-1,-1,-1,-1,-1,-1,-1,-1,-1,-1,-1,-1,-1,-1,-1,-1,-1,-1,-1,-1,-1,-1,-1],"split_conditions":[3E1,9.8E1,-9.7094184E-1,7.61E5,2.84E2,-9.9270886E-1,5.55E2,6.83E5,1.6362783E-2,5.6806475E-1,5.55E2,9.7E-1,2.73E2,5.35E1,2.5E1,-4.6472317E-1,3.375857E1,6.1E1,9.5E-1,1.6E1,2.3635504E-1,1.3E1,4E-2,5.2E-1,1.61E0,3.1221611E1,1.007E1,-7.485108E-1,1.4E-1,2.3E1,6.6602128E-3,1.280379E-3,-7.465611E-2,2.6105164E-2,-6.0137372E-2,-4.095771E-2,1.1365351E-2,4.2435013E-2,-1.1609216E-1,-1.0727563E-1,-2.5553329E-2,2.4959016E-1,-9.233867E-3,-8.561021E-3,5.885711E-2,-6.3813165E-2,6.957186E-3,1.6501766E-1,5.1977124E-2,3.6096167E-2,-5.0156273E-2,-6.0910974E-2,5.3356968E-2,1.3431393E-1,4.32472E-2,7.9292245E-2,2.0662384E-2,1.103413E-1,-2.0986733E-3,-3.38191E-2,-1.5738943E-1,1.767569E-1,5.2371277E-3],"split_indices":[28,24,20,21,38,20,38,21,37,20,38,7,38,42,1,20,2,42,11,1,16,1,7,7,36,18,8,20,12,1,37,0,0,0,0,0,0,0,0,0,0,0,0,0,0,0,0,0,0,0,0,0,0,0,0,0,0,0,0,0,0,0,0],"split_type":[0,0,0,0,0,0,0,0,0,0,0,0,0,0,0,0,0,0,0,0,0,0,0,0,0,0,0,0,0,0,0,0,0,0,0,0,0,0,0,0,0,0,0,0,0,0,0,0,0,0,0,0,0,0,0,0,0,0,0,0,0,0,0],"sum_hessian":[3.8724E3,1.6596E3,2.2128E3,1.1064E3,5.532E2,1.272E2,2.0856E3,4.18E2,6.884E2,1.6840001E2,3.848E2,4.24E1,8.48E1,1.6936E3,3.92E2,8.84E1,3.296E2,4.635E2,2.249E2,1.12E2,5.64E1,2.808E2,1.04E2,5.7E0,3.67E1,1.6E1,6.88E1,6.224E2,1.0712E3,1.92E2,2E2,2.89E1,5.95E1,3.054E2,2.42E1,2.781E2,1.8540001E2,3.44E1,1.905E2,2.24E1,8.96E1,6.6E0,4.98E1,6.48E1,2.16E2,4.6E1,5.8E1,2E0,3.7E0,1.1E1,2.57E1,8E0,8E0,4.85E1,2.03E1,1.008E2,5.216E2,4.18E1,1.0294E3,1.76E2,1.6E1,6E0,1.94E2],"tree_param":{"num_deleted":"0","num_feature":"43","num_nodes":"63","size_leaf_vector":"1"}},{"base_weights":[4.4890726E-4,6.3464284E-2,-1.6725961E-2,1.2911391E-1,1.4204027E-2,-5.1983385E-3,-9.4535924E-2,1.8352857E-1,-5.012431E-2,5.335034E-1,9.219819E-3,3.818503E-2,-3.4984913E-2,-2.2493511E-1,-3.4465887E-2,1.5820391E-1,5.509612E-1,1.9569841E-1,-2.4950498E-1,2.6745962E-2,2.116256E-1,-1.1506836E-1,3.0910272E-2,2.390013E-1,1.4573837E-2,-1.0617095E-1,6.4913817E-3,-1.8433371E-1,-6.0872495E-1,-7.244847E-2,1.21753484E-1,2.0922901E-2,6.816982E-2,1.8174683E-1,2.6802683E-2,7.531039E-2,2.099168E-2,-1.322286E-1,-2.9819781E-2,-5.9789963E-2,8.2553655E-2,1.4322978E-2,-6.0912367E-2,2.7035357E-2,1.23719506E-1,-1.6348494E-2,3.3813436E-2,-5.3304967E-2,-1.2339547E-3,5.01182E-2,-1.1157328E-2,-7.787205E-2,3.3320878E-2,-2.0126083E-1,-6.3329175E-2,-1.1367418E-2,-9.985674E-2,1.3191509E-1,-3.6737667E-3],"categories":[],"categories_nodes":[],"categories_segments":[],"categories_sizes":[],"default_left":[0,0,0,0,0,0,0,0,0,0,0,0,0,0,0,0,0,0,0,0,0,0,0,0,0,0,0,0,0,0,0,0,0,0,0,0,0,0,0,0,0,0,0,0,0,0,0,0,0,0,0,0,0,0,0,0,0,0,0],"id":12,"left_children":[1,3,5,7,9,11,13,15,17,19,21,23,25,27,29,31,33,35,37,-1,-1,39,41,43,45,47,49,51,53,55,57,-1,-1,-1,-1,-1,-1,-1,-1,-1,-1,-1,-1,-1,-1,-1,-1,-1,-1,-1,-1,-1,-1,-1,-1,-1,-1,-1,-1],"loss_changes":[4.1931677E0,2.6816702E0,2.7304049E0,3.4774327E0,1.2250397E0,3.4293952E0,3.0690825E0,2.4531288E0,4.146256E0,2.808671E-1,1.2751974E0,5.119246E0,4.646205E0,1.8153353E0,1.6114902E0,1.5522623E0,3.8146734E-1,2.4680853E-1,1.2940176E0,0E0,0E0,2.3656821E0,1.5943862E0,2.8955264E0,6.566131E0,4.227222E0,6.985908E0,2.5470457E0,1.400795E-1,1.9482514E0,2.2720718E0,0E0,0E0,0E0,0E0,0E0,0E0,0E0,0E0,0E0,0E0,0E0,0E0,0E0,0E0,0E0,0E0,0E0,0E0,0E0,0E0,0E0,0E0,0E0,0E0,0E0,0E0,0E0,0E0],"parents":[2147483647,0,0,1,1,2,2,3,3,4,4,5,5,6,6,7,7,8,8,9,9,10,10,11,11,12,12,13,13,14,14,15,15,16,16,17,17,18,18,21,21,22,22,23,23,24,24,25,25,26,26,27,27,28,28,29,29,30,30],"right_children":[2,4,6,8,10,12,14,16,18,20,22,24,26,28,30,32,34,36,38,-1,-1,40,42,44,46,48,50,52,54,56,58,-1,-1,-1,-1,-1,-1,-1,-1,-1,-1,-1,-1,-1,-1,-1,-1,-1,-1,-1,-1,-1,-1,-1,-1,-1,-1,-1,-1],"split_conditions":[1.61E0,8.7E5,4.856E1,4.1E1,5E-2,-1.2053668E-1,1.1912561E-1,2.5391428E1,4.82E1,1.875E1,4.52E1,1.7E1,5.6806475E-1,8.797143E1,2.402E1,4.82E1,4.356E1,6E0,6.43E5,2.6745962E-2,2.116256E-1,2.331E1,7.623E1,6.29E1,1.101E1,1.147804E-1,2.73E2,6.22E1,2.66E0,9.082429E1,2.7038572E1,2.0922901E-2,6.816982E-2,1.8174683E-1,2.6802683E-2,7.531039E-2,2.099168E-2,-1.322286E-1,-2.9819781E-2,-5.9789963E-2,8.2553655E-2,1.4322978E-2,-6.0912367E-2,2.7035357E-2,1.23719506E-1,-1.6348494E-2,3.3813436E-2,-5.3304967E-2,-1.2339547E-3,5.01182E-2,-1.1157328E-2,-7.787205E-2,3.3320878E-2,-2.0126083E-1,-6.3329175E-2,-1.1367418E-2,-9.985674E-2,1.3191509E-1,-3.6737667E-3],"split_indices":[36,21,7,1,13,20,37,4,42,4,25,1,20,9,4,42,3,0,21,0,0,4,7,40,6,37,38,25,34,9,2,0,0,0,0,0,0,0,0,0,0,0,0,0,0,0,0,0,0,0,0,0,0,0,0,0,0,0,0],"split_type":[0,0,0,0,0,0,0,0,0,0,0,0,0,0,0,0,0,0,0,0,0,0,0,0,0,0,0,0,0,0,0,0,0,0,0,0,0,0,0,0,0,0,0,0,0,0,0,0,0,0,0,0,0,0,0,0,0,0,0],"sum_hessian":[3.8724E3,8.288E2,3.0436E3,3.546E2,4.742E2,2.6518E3,3.918E2,2.72E2,8.26E1,3.5E0,4.707E2,1.0794E3,1.5724E3,1.227E2,2.691E2,2.558E2,1.62E1,3.7E1,4.5600002E1,1.4E0,2.1E0,6.9299995E1,4.014E2,1.126E2,9.668E2,5.783E2,9.941E2,1.123E2,1.04E1,2.169E2,5.22E1,1.13E2,1.428E2,1.4200001E1,2E0,2.5E1,1.2E1,1.92E1,2.6400002E1,5.7399998E1,1.19E1,3.752E2,2.62E1,6.14E1,5.12E1,5.677E2,3.991E2,3.396E2,2.387E2,2.12E2,7.821E2,8.96E1,2.27E1,8.4E0,2E0,1.925E2,2.44E1,1.48E1,3.74E1],"tree_param":{"num_deleted":"0","num_feature":"43","num_nodes":"59","size_leaf_vector":"1"}},{"base_weights":[3.934957E-4,-5.1659658E-3,1.1214986E-1,-3.7149087E-2,1.9256977E-2,-5.703079E-3,3.7267983E-1,-5.70317E-2,4.233595E-2,-2.6158469E-2,4.2262893E-2,-1.388519E-1,1.5052223E-1,-1.08161055E-1,5.620394E-1,-2.6969412E-2,-1.3361025E-1,-1.7618015E-2,2.3738024E-1,1.2971805E-1,-5.3066198E-2,1.3314383E-1,1.2117266E-2,-3.3308286E-2,-5.0003034E-1,4.349044E-1,3.3930212E-2,1.4527446E-1,-2.9044354E-1,7.4050194E-1,2.2170976E-1,1.1575824E-3,-5.55552E-2,-9.6152835E-2,-2.8084133E-2,-2.9071206E-2,3.4294937E-2,1.8182067E-2,1.257613E-1,3.1551965E-2,2.1511374E-1,6.789554E-2,-2.10297E-2,3.3322622E-3,5.8577336E-2,5.959543E-3,-6.8716966E-2,-5.1933922E-2,9.02558E-2,-1.8594226E-1,6.289092E-2,1.6543591E-1,-3.544046E-2,6.632962E-2,-4.1531403E-2,-3.4053512E-2,1.0606592E-1,2.72669E-1,4.174638E-2,1.0376746E-3,1.3529772E-1],"categories":[],"categories_nodes":[],"categories_segments":[],"categories_sizes":[],"default_left":[0,0,0,0,0,0,0,0,0,0,0,0,0,0,0,0,0,0,0,0,0,0,0,0,0,0,0,0,0,0,0,0,0,0,0,0,0,0,0,0,0,0,0,0,0,0,0,0,0,0,0,0,0,0,0,0,0,0,0,0,0],"id":13,"left_children":[1,3,5,7,9,11,13,15,17,19,21,23,25,27,29,31,33,35,37,39,41,43,45,47,49,51,53,55,-1,57,59,-1,-1,-1,-1,-1,-1,-1,-1,-1,-1,-1,-1,-1,-1,-1,-1,-1,-1,-1,-1,-1,-1,-1,-1,-1,-1,-1,-1,-1,-1],"loss_changes":[2.4071426E0,2.88368E0,5.6394205E0,2.528478E0,2.1883397E0,2.6709752E0,5.268955E0,2.9408164E0,3.7508366E0,2.961756E0,3.8062437E0,2.6250658E0,1.9448038E0,3.8458052E0,2.338152E0,4.486498E0,2.6633487E0,2.5843747E0,2.3980737E0,1.4238362E0,2.8782244E0,2.6213236E0,1.9568478E0,2.6075175E0,1.4559636E0,1.1673424E0,1.4178703E0,7.9472697E-1,0E0,2.567134E0,7.7908164E-1,0E0,0E0,0E0,0E0,0E0,0E0,0E0,0E0,0E0,0E0,0E0,0E0,0E0,0E0,0E0,0E0,0E0,0E0,0E0,0E0,0E0,0E0,0E0,0E0,0E0,0E0,0E0,0E0,0E0,0E0],"parents":[2147483647,0,0,1,1,2,2,3,3,4,4,5,5,6,6,7,7,8,8,9,9,10,10,11,11,12,12,13,13,14,14,15,15,16,16,17,17,18,18,19,19,20,20,21,21,22,22,23,23,24,24,25,25,26,26,27,27,29,29,30,30],"right_children":[2,4,6,8,10,12,14,16,18,20,22,24,26,28,30,32,34,36,38,40,42,44,46,48,50,52,54,56,-1,58,60,-1,-1,-1,-1,-1,-1,-1,-1,-1,-1,-1,-1,-1,-1,-1,-1,-1,-1,-1,-1,-1,-1,-1,-1,-1,-1,-1,-1,-1,-1],"split_conditions":[4.3718662E1,3E1,6.29E1,6.88E1,7.56E5,1.8E1,8E-2,3.676958E1,4.1E1,9.22E0,8.7E5,1.7E1,6.522093E0,2E1,2.2765331E-1,5.098009E-1,1.909566E-1,2.9394285E1,8.120292E0,4.1700333E1,2.1173121E-1,5.541764E-5,9.405E1,1.6E1,9E-2,2.434E1,3.14E0,3.1585715E0,-2.9044354E-1,2.6523711E-2,6.54E1,1.1575824E-3,-5.55552E-2,-9.6152835E-2,-2.8084133E-2,-2.9071206E-2,3.4294937E-2,1.8182067E-2,1.257613E-1,3.1551965E-2,2.1511374E-1,6.789554E-2,-2.10297E-2,3.3322622E-3,5.8577336E-2,5.959543E-3,-6.8716966E-2,-5.1933922E-2,9.02558E-2,-1.8594226E-1,6.289092E-2,1.6543591E-1,-3.544046E-2,6.632962E-2,-4.1531403E-2,-3.4053512E-2,1.0606592E-1,2.72669E-1,4.174638E-2,1.0376746E-3,1.3529772E-1],"split_indices":[18,28,40,42,21,1,13,18,1,35,21,1,41,1,16,14,17,5,41,18,17,23,6,1,6,4,10,10,0,23,25,0,0,0,0,0,0,0,0,0,0,0,0,0,0,0,0,0,0,0,0,0,0,0,0,0,0,0,0,0,0],"split_type":[0,0,0,0,0,0,0,0,0,0,0,0,0,0,0,0,0,0,0,0,0,0,0,0,0,0,0,0,0,0,0,0,0,0,0,0,0,0,0,0,0,0,0,0,0,0,0,0,0,0,0,0,0,0,0,0,0,0,0,0,0],"sum_hessian":[3.8724E3,3.6898E3,1.826E2,1.5974E3,2.0924E3,1.264E2,5.62E1,1.278E3,3.194E2,7.035E2,1.3889E3,6.83E1,5.81E1,1.6E1,4.02E1,9.187E2,3.593E2,2.45E2,7.44E1,1.03E2,6.005E2,3.451E2,1.0438E3,5.37E1,1.46E1,1.61E1,4.2E1,1.3E1,3E0,2.56E1,1.46E1,7.697E2,1.49E2,6.21E1,2.972E2,1.532E2,9.18E1,3.84E1,3.6E1,1E2,3E0,3.38E1,5.667E2,1.168E2,2.283E2,1.0122E3,3.16E1,3.82E1,1.55E1,1.26E1,2E0,1.33E1,2.8E0,2E1,2.2E1,6E0,7E0,1.96E1,6E0,8E0,6.6E0],"tree_param":{"num_deleted":"0","num_feature":"43","num_nodes":"61","size_leaf_vector":"1"}},{"base_weights":[4.2142704E-4,2.0926577E-1,-2.1322193E-3,4.6788713E-1,7.625577E-2,-3.7912928E-2,1.6785476E-2,3.240245E-2,6.566875E-1,-5.036986E-3,3.85192E-1,-2.5166258E-2,-2.173293E-1,3.5112355E-2,-2.4280945E-2,-7.223312E-2,3.8252365E-2,7.883386E-1,5.6231122E-2,-1.1221542E-1,2.110512E-1,4.9075913E-1,-3.248109E-2,-1.7107517E-2,-2.7235824E-1,-2.4517143E-1,4.2656028E-1,1.577904E-1,1.6458198E-2,-7.217388E-2,3.1899504E-2,-3.0954096E-2,3.0602218E-4,1.0748986E-1,2.71353E-1,-4.0103816E-3,-1.11742854E-1,9.5463276E-2,-1.5390516E-3,1.5972845E-1,4.423721E-2,-3.2181073E-2,2.6703249E-3,-1.15135014E-1,3.099066E-3,-1.32657E-1,-5.9764817E-2,1.6371395E-1,1.0365272E-2,1.4225013E-2,7.904811E-2,6.422573E-3,-1.0562362E-1,6.5500704E-3,-6.0359374E-2,7.5819194E-2,2.261359E-3],"categories":[],"categories_nodes":[],"categories_segments":[],"categories_sizes":[],"default_left":[0,0,0,0,0,0,0,0,0,0,0,0,0,0,0,0,0,0,0,0,0,0,0,0,0,0,0,0,0,0,0,0,0,0,0,0,0,0,0,0,0,0,0,0,0,0,0,0,0,0,0,0,0,0,0,0,0],"id":14,"left_children":[1,3,5,7,9,11,13,15,17,19,21,23,25,27,29,31,-1,33,-1,35,37,39,-1,41,43,45,47,49,51,53,55,-1,-1,-1,-1,-1,-1,-1,-1,-1,-1,-1,-1,-1,-1,-1,-1,-1,-1,-1,-1,-1,-1,-1,-1,-1,-1],"loss_changes":[2.0661871E0,1.5742044E0,2.5914948E0,1.2695706E0,8.081085E-1,3.022696E0,1.8857875E0,6.692847E-2,5.256095E-1,6.3510704E-1,4.0216047E-1,2.460311E0,1.6768012E0,3.961236E0,2.0832486E0,7.812984E-3,0E0,8.5571766E-2,0E0,4.658087E-1,2.1244246E-1,3.0282736E-3,0E0,2.813555E0,1.23241E0,6.787877E-1,1.679812E-1,2.6533847E0,2.7525249E0,5.0719805E0,1.9165347E0,0E0,0E0,0E0,0E0,0E0,0E0,0E0,0E0,0E0,0E0,0E0,0E0,0E0,0E0,0E0,0E0,0E0,0E0,0E0,0E0,0E0,0E0,0E0,0E0,0E0,0E0],"parents":[2147483647,0,0,1,1,2,2,3,3,4,4,5,5,6,6,7,7,8,8,9,9,10,10,11,11,12,12,13,13,14,14,15,15,17,17,19,19,20,20,21,21,23,23,24,24,25,25,26,26,27,27,28,28,29,29,30,30],"right_children":[2,4,6,8,10,12,14,16,18,20,22,24,26,28,30,32,-1,34,-1,36,38,40,-1,42,44,46,48,50,52,54,56,-1,-1,-1,-1,-1,-1,-1,-1,-1,-1,-1,-1,-1,-1,-1,-1,-1,-1,-1,-1,-1,-1,-1,-1,-1,-1],"split_conditions":[1.7225993E-1,1.091E6,3.5E-1,1.7E-1,3.4396103E1,1.428E1,3.9E1,2.8911428E1,2.2786887E-1,3.16E0,1E0,4.381E1,3.123E1,6.522093E0,9.366404E0,2.8E1,3.8252365E-2,1.9001053E-1,5.6231122E-2,3E1,1.24E1,2.8E1,-3.248109E-2,3.2824387E1,2.1E-1,1.4337E4,5.56E0,7.04E5,2.2101E2,9.22E0,1.0841977E-1,-3.0954096E-2,3.0602218E-4,1.0748986E-1,2.71353E-1,-4.0103816E-3,-1.11742854E-1,9.5463276E-2,-1.5390516E-3,1.5972845E-1,4.423721E-2,-3.2181073E-2,2.6703249E-3,-1.15135014E-1,3.099066E-3,-1.32657E-1,-5.9764817E-2,1.6371395E-1,1.0365272E-2,1.4225013E-2,7.904811E-2,6.422573E-3,-1.0562362E-1,6.5500704E-3,-6.0359374E-2,7.5819194E-2,2.261359E-3],"split_indices":[16,21,34,13,18,8,1,2,14,8,0,3,5,41,41,1,0,14,0,1,36,1,0,18,11,33,7,21,6,35,37,0,0,0,0,0,0,0,0,0,0,0,0,0,0,0,0,0,0,0,0,0,0,0,0,0,0],"split_type":[0,0,0,0,0,0,0,0,0,0,0,0,0,0,0,0,0,0,0,0,0,0,0,0,0,0,0,0,0,0,0,0,0,0,0,0,0,0,0,0,0,0,0,0,0,0,0,0,0,0,0,0,0,0,0,0,0],"sum_hessian":[3.8724E3,4.58E1,3.8266E3,1.47E1,3.11E1,1.3231E3,2.5035E3,4.8E0,9.9E0,2.54E1,5.7E0,1.2364E3,8.67E1,1.7311E3,7.724E2,2.4E0,2.4E0,7.2E0,2.7E0,1.73E1,8.1E0,4.7E0,1E0,1.1984E3,3.8E1,8.37E1,3E0,2.275E2,1.5036E3,4.168E2,3.556E2,1.4E0,1E0,2.4E0,4.8E0,1.33E1,4E0,5.1E0,3E0,3.7E0,1E0,2.676E2,9.308E2,2.7E1,1.1E1,1.42E1,6.95E1,2E0,1E0,1.12E2,1.155E2,1.4846E3,1.9E1,2.416E2,1.752E2,3.44E1,3.212E2],"tree_param":{"num_deleted":"0","num_feature":"43","num_nodes":"57","size_leaf_vector":"1"}},{"base_weights":[4.114149E-4,9.080418E-2,-5.12497E-3,-1.6176586E-1,1.5010874E-1,-1.14631996E-1,-4.52324E-4,-2.8206892E-2,-3.2898733E-1,-2.026619E-2,2.3476143E-1,-4.2644402E-1,1.987044E-1,2.103915E-2,-3.042198E-2,-1.2862511E-1,2.4838638E-1,-1.5888883E-1,-1.9564256E-1,2.4473888E-1,-1.1237715E-1,3.2688117E-1,1.1372898E-1,-6.6360426E-1,-2.1132912E-1,5.497719E-1,-7.69734E-2,4.6621775E-3,1.7468394E-1,-9.853837E-2,1.5114025E-3,-1.2635901E-2,-8.127092E-2,1.2492657E-3,8.651881E-2,-1.0243255E-1,-3.5327584E-2,1.1901128E-1,-3.0638553E-2,-7.391708E-3,-1.10470906E-1,5.440042E-2,1.4546293E-1,8.546937E-2,-2.4815816E-3,-5.6181278E-2,-2.3433088E-1,9.418077E-2,-8.1132434E-2,2.1672316E-1,5.801794E-2,6.2257264E-2,-9.325426E-2,2.9602938E-3,-7.990968E-2,8.287601E-2,-3.7092254E-2,1.1265354E-3,-4.0781196E-2,-1.6282272E-2,1.496832E-2],"categories":[],"categories_nodes":[],"categories_segments":[],"categories_sizes":[],"default_left":[0,0,0,0,0,0,0,0,0,0,0,0,0,0,0,0,0,0,0,0,0,0,0,0,0,0,0,0,0,0,0,0,0,0,0,0,0,0,0,0,0,0,0,0,0,0,0,0,0,0,0,0,0,0,0,0,0,0,0,0,0],"id":15,"left_children":[1,3,5,7,9,11,13,15,17,19,21,23,25,27,29,31,33,-1,35,37,39,41,43,45,47,49,51,53,55,57,59,-1,-1,-1,-1,-1,-1,-1,-1,-1,-1,-1,-1,-1,-1,-1,-1,-1,-1,-1,-1,-1,-1,-1,-1,-1,-1,-1,-1,-1,-1],"loss_changes":[1.9389049E0,3.3734868E0,1.8680171E0,9.5107913E-1,2.62392E0,1.4681425E1,2.256508E0,7.263238E-1,4.047191E-1,1.5213871E0,1.3163705E0,3.6962175E0,7.320287E0,5.133063E0,3.1826649E0,2.2243816E-1,6.71978E-2,0E0,1.07412815E-1,8.891753E-1,1.0258079E0,1.4849772E0,1.1300261E0,1.8294106E0,1.3548316E0,1.9029131E0,2.9255834E0,2.6053212E0,5.9882407E0,1.7870979E0,2.6939566E0,0E0,0E0,0E0,0E0,0E0,0E0,0E0,0E0,0E0,0E0,0E0,0E0,0E0,0E0,0E0,0E0,0E0,0E0,0E0,0E0,0E0,0E0,0E0,0E0,0E0,0E0,0E0,0E0,0E0,0E0],"parents":[2147483647,0,0,1,1,2,2,3,3,4,4,5,5,6,6,7,7,8,8,9,9,10,10,11,11,12,12,13,13,14,14,15,15,16,16,18,18,19,19,20,20,21,21,22,22,23,23,24,24,25,25,26,26,27,27,28,28,29,29,30,30],"right_children":[2,4,6,8,10,12,14,16,18,20,22,24,26,28,30,32,34,-1,36,38,40,42,44,46,48,50,52,54,56,58,60,-1,-1,-1,-1,-1,-1,-1,-1,-1,-1,-1,-1,-1,-1,-1,-1,-1,-1,-1,-1,-1,-1,-1,-1,-1,-1,-1,-1,-1,-1],"split_conditions":[-9.7094184E-1,2.73E2,-9.350162E-1,1.2E0,-9.9270886E-1,2.5E1,1.44E0,3.319759E1,-9.9270886E-1,2.263E1,2.65E1,2.315E1,3.73E2,1.86E0,9.687985E-2,5.645295E-1,4E0,-1.5888883E-1,2.375E1,1E1,3.004E1,2.6E1,1.69E0,6.8490663E0,1.3E0,2.4722857E1,5.95E1,7.31E0,8.85456E-1,5.15E1,6E1,-1.2635901E-2,-8.127092E-2,1.2492657E-3,8.651881E-2,-1.0243255E-1,-3.5327584E-2,1.1901128E-1,-3.0638553E-2,-7.391708E-3,-1.10470906E-1,5.440042E-2,1.4546293E-1,8.546937E-2,-2.4815816E-3,-5.6181278E-2,-2.3433088E-1,9.418077E-2,-8.1132434E-2,2.1672316E-1,5.801794E-2,6.2257264E-2,-9.325426E-2,2.9602938E-3,-7.990968E-2,8.287601E-2,-3.7092254E-2,1.1265354E-3,-4.0781196E-2,-1.6282272E-2,1.496832E-2],"split_indices":[20,38,20,27,20,1,8,18,20,4,6,4,38,6,37,37,0,0,4,0,7,1,8,41,36,4,42,7,19,42,31,0,0,0,0,0,0,0,0,0,0,0,0,0,0,0,0,0,0,0,0,0,0,0,0,0,0,0,0,0,0],"split_type":[0,0,0,0,0,0,0,0,0,0,0,0,0,0,0,0,0,0,0,0,0,0,0,0,0,0,0,0,0,0,0,0,0,0,0,0,0,0,0,0,0,0,0,0,0,0,0,0,0,0,0,0,0,0,0,0,0,0,0,0,0],"sum_hessian":[3.8724E3,2.226E2,3.6498E3,4.2E1,1.806E2,1.484E2,3.5014E3,2.4E1,1.8E1,6.02E1,1.204E2,7.42E1,7.42E1,2.0393E3,1.4621E3,1.8E1,6E0,6E0,1.2E1,1.51E1,4.51E1,6.74E1,5.3E1,3.43E1,3.99E1,3.22E1,4.2E1,1.8438E3,1.955E2,4.66E2,9.961E2,1.2E1,6E0,1E0,5E0,3E0,9E0,1.04E1,4.7E0,3.44E1,1.07E1,3.62E1,3.12E1,2.15E1,3.15E1,7.2999997E0,2.7E1,3.6000001E0,3.63E1,2.1E1,1.1200001E1,1.9E1,2.3E1,1.81E3,3.38E1,1.459E2,4.96E1,1.25E2,3.41E2,4.626E2,5.335E2],"tree_param":{"num_deleted":"0","num_feature":"43","num_nodes":"61","size_leaf_vector":"1"}},{"base_weights":[2.4791033E-4,-1.5383895E-3,2.1206012E-1,1.1372139E-3,-1.8343739E-1,-2.4216835E-1,3.1600967E-1,-3.4887441E-3,1.1491247E-1,-1.138746E-1,-4.899519E-1,-3.541536E-1,1.9898873E-2,4.4840866E-1,-1.9622056E-1,-2.502751E-3,-5.149039E-1,2.2789551E-2,3.1487975E-1,-3.6556858E-1,-3.5332136E-2,-2.388828E-1,-1.5302317E-1,-1.3718438E-1,-3.989244E-2,5.2653736E-1,1.9106506E-1,-2.1527527E-1,2.6992548E-1,-7.617571E-3,4.5318576E-3,-2.167357E-1,7.9345703E-4,3.195014E-2,-5.203532E-2,2.3867676E-1,6.294457E-2,-1.6288106E-1,8.651772E-2,1.3412954E-1,-2.7463648E-2,-6.0714535E-2,-2.3324527E-2,1.8560888E-3,1.6824448E-1,5.656278E-3,9.880103E-2,1.0736909E-1,9.016514E-4],"categories":[],"categories_nodes":[],"categories_segments":[],"categories_sizes":[],"default_left":[0,0,0,0,0,0,0,0,0,0,0,0,0,0,0,0,0,0,0,0,0,0,0,0,0,0,0,0,0,0,0,0,0,0,0,0,0,0,0,0,0,0,0,0,0,0,0,0,0],"id":16,"left_children":[1,3,5,7,9,11,13,15,17,19,21,23,-1,25,27,29,31,33,35,37,39,-1,41,-1,-1,43,45,-1,47,-1,-1,-1,-1,-1,-1,-1,-1,-1,-1,-1,-1,-1,-1,-1,-1,-1,-1,-1,-1],"loss_changes":[1.4658663E0,1.87007E0,1.6063535E0,1.993731E0,1.1318424E0,2.5150245E-1,1.90553E0,1.8343391E0,2.7192156E0,9.1028035E-1,9.102454E-1,5.3241372E-2,0E0,3.3368492E-1,1.70049E0,1.4652019E0,7.53826E-1,1.7006465E0,2.1866302E0,1.43249E0,1.0361987E0,0E0,6.557882E-3,0E0,0E0,2.8191137E-1,1.5094899E-1,0E0,9.28497E-2,0E0,0E0,0E0,0E0,0E0,0E0,0E0,0E0,0E0,0E0,0E0,0E0,0E0,0E0,0E0,0E0,0E0,0E0,0E0,0E0],"parents":[2147483647,0,0,1,1,2,2,3,3,4,4,5,5,6,6,7,7,8,8,9,9,10,10,11,11,13,13,14,14,15,15,16,16,17,17,18,18,19,19,20,20,22,22,25,25,26,26,28,28],"right_children":[2,4,6,8,10,12,14,16,18,20,22,24,-1,26,28,30,32,34,36,38,40,-1,42,-1,-1,44,46,-1,48,-1,-1,-1,-1,-1,-1,-1,-1,-1,-1,-1,-1,-1,-1,-1,-1,-1,-1,-1,-1],"split_conditions":[3.533143E1,4.427E1,1.9E1,4.3718662E1,2.5025997E-1,2.1043483E-5,2.3E1,3.502E1,6.29E1,1.9525045E-1,3.7142858E-1,9E0,1.9898873E-2,2.2715887E-1,1.7E-1,5.78E1,2.5E1,1.5E-1,1.974E1,2.4E1,1.9163284E-1,-2.388828E-1,2.26E0,-1.3718438E-1,-3.989244E-2,4.318E1,2E-2,-2.1527527E-1,2.5E1,-7.617571E-3,4.5318576E-3,-2.167357E-1,7.9345703E-4,3.195014E-2,-5.203532E-2,2.3867676E-1,6.294457E-2,-1.6288106E-1,8.651772E-2,1.3412954E-1,-2.7463648E-2,-6.0714535E-2,-2.3324527E-2,1.8560888E-3,1.6824448E-1,5.656278E-3,9.880103E-2,1.0736909E-1,9.016514E-4],"split_indices":[2,3,1,18,14,23,1,2,40,15,12,0,0,14,6,25,1,11,4,1,14,0,10,0,0,3,7,0,1,0,0,0,0,0,0,0,0,0,0,0,0,0,0,0,0,0,0,0,0],"split_type":[0,0,0,0,0,0,0,0,0,0,0,0,0,0,0,0,0,0,0,0,0,0,0,0,0,0,0,0,0,0,0,0,0,0,0,0,0,0,0,0,0,0,0,0,0,0,0,0,0],"sum_hessian":[3.8724E3,3.841E3,3.14E1,3.7863E3,5.47E1,5.6E0,2.58E1,3.6393E3,1.47E2,4.57E1,9E0,4E0,1.6E0,2.06E1,5.2E0,3.6333E3,6E0,1.014E2,4.5600002E1,1E1,3.57E1,4E0,5E0,2E0,2E0,1.5E1,5.6E0,2.2E0,3E0,1.5796E3,2.0537E3,4E0,2E0,7.14E1,3E1,7E0,3.8600002E1,8E0,2E0,3E0,3.27E1,2E0,3E0,1E0,1.4E1,3E0,2.6E0,2E0,1E0],"tree_param":{"num_deleted":"0","num_feature":"43","num_nodes":"49","size_leaf_vector":"1"}},{"base_weights":[1.1677681E-4,-3.395345E-2,1.029783E-2,1.5827654E-2,-1.158955E-1,4.46836E-2,-1.2989325E-2,-1.2015185E-1,4.5441777E-2,-2.165308E-1,-5.924681E-2,-1.4180415E-2,1.144049E-1,-2.6160076E-3,-1.600787E-1,-2.1162361E-1,3.241331E-2,2.0454363E-3,2.852083E-1,-1.3517272E-1,-1.5397766E-1,-2.4198823E-2,-2.6875412E-1,-2.152168E-2,3.411432E-1,1.5887731E-1,-6.0393214E-2,4.2676814E-2,-2.7407963E-2,-2.4690837E-2,-2.9550737E-1,-1.0906674E-1,-3.2159515E-2,-8.469334E-3,4.2877704E-2,6.692438E-3,-5.4394223E-2,1.7857873E-1,-5.2101098E-2,-6.1818562E-2,-2.2381837E-2,-2.557152E-2,8.927398E-3,-1.1180485E-1,-3.478043E-2,-1.5025438E-2,2.2109695E-2,3.4754362E-2,1.2767631E-1,1.958754E-2,7.9170644E-2,4.2320374E-2,-7.2573535E-2,3.50024E-2,-1.2459042E-3,-1.6826788E-2,8.570466E-3,5.1150013E-2,-4.074166E-2,-1.335573E-1,1.1014824E-3],"categories":[],"categories_nodes":[],"categories_segments":[],"categories_sizes":[],"default_left":[0,0,0,0,0,0,0,0,0,0,0,0,0,0,0,0,0,0,0,0,0,0,0,0,0,0,0,0,0,0,0,0,0,0,0,0,0,0,0,0,0,0,0,0,0,0,0,0,0,0,0,0,0,0,0,0,0,0,0,0,0],"id":17,"left_children":[1,3,5,7,9,11,13,15,17,19,21,23,25,27,29,31,33,35,37,-1,39,41,43,45,47,49,51,53,55,57,59,-1,-1,-1,-1,-1,-1,-1,-1,-1,-1,-1,-1,-1,-1,-1,-1,-1,-1,-1,-1,-1,-1,-1,-1,-1,-1,-1,-1,-1,-1],"loss_changes":[1.343919E0,3.6380026E0,2.3892083E0,2.2420077E0,1.908361E0,4.9458027E0,2.7144458E0,1.3968174E0,4.752416E0,1.7020907E0,1.5868859E0,1.7135777E0,4.297564E0,1.8686607E0,2.141612E0,9.510379E-1,2.600498E-1,1.4448601E0,1.0062783E1,0E0,3.8562465E-1,6.1842126E-1,4.4914508E-1,1.7492577E0,2.0372844E-1,4.3074436E0,4.1517887E0,2.0405102E0,1.7281263E0,1.3179629E0,2.6213932E0,0E0,0E0,0E0,0E0,0E0,0E0,0E0,0E0,0E0,0E0,0E0,0E0,0E0,0E0,0E0,0E0,0E0,0E0,0E0,0E0,0E0,0E0,0E0,0E0,0E0,0E0,0E0,0E0,0E0,0E0],"parents":[2147483647,0,0,1,1,2,2,3,3,4,4,5,5,6,6,7,7,8,8,9,9,10,10,11,11,12,12,13,13,14,14,15,15,16,16,17,17,18,18,20,20,21,21,22,22,23,23,24,24,25,25,26,26,27,27,28,28,29,29,30,30],"right_children":[2,4,6,8,10,12,14,16,18,20,22,24,26,28,30,32,34,36,38,-1,40,42,44,46,48,50,52,54,56,58,60,-1,-1,-1,-1,-1,-1,-1,-1,-1,-1,-1,-1,-1,-1,-1,-1,-1,-1,-1,-1,-1,-1,-1,-1,-1,-1,-1,-1,-1,-1],"split_conditions":[1.3E1,3.99E2,2E-1,3.2129734E1,8.627123E0,5.87E1,4.017E1,6.1E-1,6.89E0,1E0,4.739506E-1,3.5888573E1,4.197E1,5.13E1,-8.2298386E-1,2.73E2,6.2142855E-1,1E-2,9E0,-1.3517272E-1,2.416649E-1,2.5E0,8.6E-1,6.68E1,3.88E1,3.62E0,4.671198E-5,1.579E1,3.99E2,3.0371428E0,3.2554287E1,-1.0906674E-1,-3.2159515E-2,-8.469334E-3,4.2877704E-2,6.692438E-3,-5.4394223E-2,1.7857873E-1,-5.2101098E-2,-6.1818562E-2,-2.2381837E-2,-2.557152E-2,8.927398E-3,-1.1180485E-1,-3.478043E-2,-1.5025438E-2,2.2109695E-2,3.4754362E-2,1.2767631E-1,1.958754E-2,7.9170644E-2,4.2320374E-2,-7.2573535E-2,3.50024E-2,-1.2459042E-3,-1.6826788E-2,8.570466E-3,5.1150013E-2,-4.074166E-2,-1.335573E-1,1.1014824E-3],"split_indices":[1,38,7,18,41,42,3,34,36,27,16,2,3,42,20,38,12,7,1,0,14,36,34,26,42,36,23,8,38,10,2,0,0,0,0,0,0,0,0,0,0,0,0,0,0,0,0,0,0,0,0,0,0,0,0,0,0,0,0,0,0],"split_type":[0,0,0,0,0,0,0,0,0,0,0,0,0,0,0,0,0,0,0,0,0,0,0,0,0,0,0,0,0,0,0,0,0,0,0,0,0,0,0,0,0,0,0,0,0,0,0,0,0,0,0,0,0,0,0,0,0,0,0,0,0],"sum_hessian":[3.8724E3,8.904E2,2.982E3,5.544E2,3.36E2,1.2037E3,1.7783E3,9.86E1,4.558E2,1.2E2,2.16E2,6.531E2,5.506E2,1.6621E3,1.162E2,6.14E1,3.72E1,3.868E2,6.9E1,2.4E1,9.6E1,1.86E2,3E1,6.408E2,1.23E1,4.39E2,1.116E2,5.877E2,1.0744E3,5.87E1,5.75E1,2.4E1,3.74E1,2.45E1,1.27E1,3.491E2,3.77E1,4.1E1,2.8E1,5.7E1,3.9E1,8.7E1,9.9E1,1.7E1,1.3E1,4.933E2,1.475E2,4E0,8.3E0,2.33E2,2.06E2,5.3E1,5.86E1,2.272E2,3.605E2,7.104E2,3.64E2,2.11E1,3.76E1,3.8E1,1.95E1],"tree_param":{"num_deleted":"0","num_feature":"43","num_nodes":"61","size_leaf_vector":"1"}},{"base_weights":[1.2237855E-5,3.120008E-1,-9.408707E-4,2.9363224E-1,1.596353E-1,1.888055E-2,-1.581549E-2,-3.8064983E-2,2.4337924E-1,-1.7287718E-2,4.1234165E-2,-6.7329E-3,-1.026198E-1,2.9895565E-1,1.3963745E-2,5.196863E-2,-5.7719033E-2,9.858102E-2,1.4825131E-2,-2.2629278E-3,-1.4872368E-1,2.9780004E-2,-1.866367E-1,1.0054415E-1,2.879278E-2,2.854627E-3,6.872544E-2,3.6874816E-2,-2.2509778E-2,8.6404316E-2,1.7857263E-2,-7.2322236E-3,1.8905725E-2,-1.357477E-3,7.658903E-2,-8.0610305E-2,2.7779976E-2,-2.0668551E-2,1.4253664E-1,-6.4185284E-2,3.7001234E-2],"categories":[],"categories_nodes":[],"categories_segments":[],"categories_sizes":[],"default_left":[0,0,0,0,0,0,0,0,0,0,0,0,0,0,0,0,0,0,0,0,0,0,0,0,0,0,0,0,0,0,0,0,0,0,0,0,0,0,0,0,0],"id":18,"left_children":[1,3,5,-1,7,9,11,-1,13,15,17,19,21,23,-1,25,27,29,31,33,35,37,39,-1,-1,-1,-1,-1,-1,-1,-1,-1,-1,-1,-1,-1,-1,-1,-1,-1,-1],"loss_changes":[1.1520838E0,1.0425533E0,1.1391326E0,0E0,2.9001808E-1,1.3398983E0,1.7394831E0,0E0,8.125675E-2,1.7765988E0,1.5493606E0,1.2685453E0,2.3304365E0,1.631844E-2,0E0,1.7573011E0,1.2614483E0,2.370405E0,1.3192538E0,1.1309311E0,1.791037E0,3.6361592E0,1.110127E0,0E0,0E0,0E0,0E0,0E0,0E0,0E0,0E0,0E0,0E0,0E0,0E0,0E0,0E0,0E0,0E0,0E0,0E0],"parents":[2147483647,0,0,1,1,2,2,4,4,5,5,6,6,8,8,9,9,10,10,11,11,12,12,13,13,15,15,16,16,17,17,18,18,19,19,20,20,21,21,22,22],"right_children":[2,4,6,-1,8,10,12,-1,14,16,18,20,22,24,-1,26,28,30,32,34,36,38,40,-1,-1,-1,-1,-1,-1,-1,-1,-1,-1,-1,-1,-1,-1,-1,-1,-1,-1],"split_conditions":[2.9323308E-3,6E-2,6E0,2.9363224E-1,2.2285715E-1,3.602404E-2,1.365E1,-3.8064983E-2,5.5E1,3.3E-1,-4.6472317E-1,8.8E1,1.06E0,6.03E1,1.3963745E-2,1.64E0,1.504E1,6.522093E0,3.520933E1,2.744E1,6.8E1,2.118E1,5.511E1,1.0054415E-1,2.879278E-2,2.854627E-3,6.872544E-2,3.6874816E-2,-2.2509778E-2,8.6404316E-2,1.7857263E-2,-7.2322236E-3,1.8905725E-2,-1.357477E-3,7.658903E-2,-8.0610305E-2,2.7779976E-2,-2.0668551E-2,1.4253664E-1,-6.4185284E-2,3.7001234E-2],"split_indices":[37,34,0,0,12,37,36,0,28,12,20,31,11,25,0,6,4,41,18,4,28,4,6,0,0,0,0,0,0,0,0,0,0,0,0,0,0,0,0,0,0],"split_type":[0,0,0,0,0,0,0,0,0,0,0,0,0,0,0,0,0,0,0,0,0,0,0,0,0,0,0,0,0,0,0,0,0,0,0,0,0,0,0,0,0],"sum_hessian":[3.8724E3,1.08E1,3.8616E3,1E0,9.8E0,1.6554E3,2.2062E3,2.1E0,7.7E0,6.324E2,1.023E3,1.9982E3,2.08E2,5.6E0,2.1E0,2.33E2,3.994E2,3.217E2,7.013E2,1.9382E3,6E1,8.1E1,1.27E2,4.2E0,1.4E0,1.888E2,4.42E1,3.44E1,3.65E2,5.3899998E1,2.678E2,3.882E2,3.131E2,1.9223E3,1.5900001E1,4E1,2E1,6.7E1,1.4E1,1.17E2,1E1],"tree_param":{"num_deleted":"0","num_feature":"43","num_nodes":"41","size_leaf_vector":"1"}},{"base_weights":[1.939067E-4,1.7976564E-3,-1.3815194E-1,9.264989E-3,-2.9979385E-2,1.1473286E-2,-3.967987E-1,2.2601404E-3,8.12092E-2,-4.194775E-2,4.194672E-1,2.2730233E-1,-2.3754963E-1,-1.6252904E-1,-1.7867732E-1,8.991564E-3,-5.9859164E-2,-8.184222E-3,1.9221687E-1,1.8255913E-1,-5.6315236E-2,6.7873347E-1,-2.1865606E-2,7.878737E-2,4.239073E-1,2.7422322E-2,-2.8736734E-1,-7.396995E-2,-4.9146533E-2,4.583332E-3,-2.3410171E-2,2.562513E-3,-5.9565138E-2,4.503744E-2,-2.4182757E-2,4.225268E-2,2.2729145E-1,-3.1049694E-3,7.727024E-2,-7.387941E-2,-1.1568256E-2,2.4455431E-1,9.740122E-2,-4.116626E-2,1.1836887E-2,4.842019E-2,-1.2814523E-2,3.3214975E-2,1.3782874E-1,-9.053955E-2,-1.8427813E-2,7.425571E-3,-2.4608994E-2],"categories":[],"categories_nodes":[],"categories_segments":[],"categories_sizes":[],"default_left":[0,0,0,0,0,0,0,0,0,0,0,0,0,0,0,0,0,0,0,0,0,0,0,0,0,0,0,0,0,0,0,0,0,0,0,0,0,0,0,0,0,0,0,0,0,0,0,0,0,0,0,0,0],"id":19,"left_children":[1,3,5,7,9,11,13,15,17,19,21,23,25,-1,27,29,31,33,35,37,39,41,43,45,47,-1,49,-1,51,-1,-1,-1,-1,-1,-1,-1,-1,-1,-1,-1,-1,-1,-1,-1,-1,-1,-1,-1,-1,-1,-1,-1,-1],"loss_changes":[8.596478E-1,9.0909743E-1,1.7228364E0,1.5630951E0,3.9389892E0,1.618015E0,4.1860342E-1,1.1829867E0,2.7324805E0,2.3036819E0,2.1888726E0,4.3670183E-1,2.5569832E-1,0E0,5.823201E-2,1.3973994E0,2.625691E0,1.770913E0,3.4604235E0,6.248666E-1,2.246663E0,3.1506634E-1,6.200465E-2,1.1128645E-1,2.3671746E-2,0E0,2.1893024E-2,0E0,1.1750539E-2,0E0,0E0,0E0,0E0,0E0,0E0,0E0,0E0,0E0,0E0,0E0,0E0,0E0,0E0,0E0,0E0,0E0,0E0,0E0,0E0,0E0,0E0,0E0,0E0],"parents":[2147483647,0,0,1,1,2,2,3,3,4,4,5,5,6,6,7,7,8,8,9,9,10,10,11,11,12,12,14,14,15,15,16,16,17,17,18,18,19,19,20,20,21,21,22,22,23,23,24,24,26,26,28,28],"right_children":[2,4,6,8,10,12,14,16,18,20,22,24,26,-1,28,30,32,34,36,38,40,42,44,46,48,-1,50,-1,52,-1,-1,-1,-1,-1,-1,-1,-1,-1,-1,-1,-1,-1,-1,-1,-1,-1,-1,-1,-1,-1,-1,-1,-1],"split_conditions":[1.8374E2,5.55E2,1.5614285E0,4.1848255E1,9.405E1,2.301E1,9.08E3,4.071E1,3.42E0,-9.7094184E-1,4.462E1,1.41E0,2.807E1,-1.6252904E-1,5.760866E-1,9.405E1,1E-2,3.319E3,7.16E1,2.7985713E0,-8.85456E-1,7.542857E-1,1.054E2,2.557E1,1.9E1,2.7422322E-2,2.7987143E1,-7.396995E-2,2E0,4.583332E-3,-2.3410171E-2,2.562513E-3,-5.9565138E-2,4.503744E-2,-2.4182757E-2,4.225268E-2,2.2729145E-1,-3.1049694E-3,7.727024E-2,-7.387941E-2,-1.1568256E-2,2.4455431E-1,9.740122E-2,-4.116626E-2,1.1836887E-2,4.842019E-2,-1.2814523E-2,3.3214975E-2,1.3782874E-1,-9.053955E-2,-1.8427813E-2,7.425571E-3,-2.4608994E-2],"split_indices":[8,38,10,18,6,4,33,3,10,20,8,10,7,0,14,6,7,33,42,10,20,13,6,2,1,0,5,0,0,0,0,0,0,0,0,0,0,0,0,0,0,0,0,0,0,0,0,0,0,0,0,0,0],"split_type":[0,0,0,0,0,0,0,0,0,0,0,0,0,0,0,0,0,0,0,0,0,0,0,0,0,0,0,0,0,0,0,0,0,0,0,0,0,0,0,0,0,0,0,0,0,0,0,0,0,0,0,0,0],"sum_hessian":[3.8724E3,3.829E3,4.34E1,3.101E3,7.28E2,2.81E1,1.53E1,2.8268E3,2.742E2,7.1E2,1.8E1,1.51E1,1.3E1,8.3E0,7E0,2.5512E3,2.756E2,1.524E2,1.218E2,4.2E1,6.68E2,1.1E1,7E0,9.4E0,5.7E0,1.6E0,1.14E1,4E0,3E0,2.3801E3,1.711E2,1.852E2,9.04E1,4.75E1,1.049E2,1.128E2,9E0,1.2E1,3E1,5.6E1,6.12E2,7E0,4E0,2E0,5E0,5.4E0,4E0,1E0,4.7E0,1.04E1,1E0,1E0,2E0],"tree_param":{"num_deleted":"0","num_feature":"43","num_nodes":"53","size_leaf_vector":"1"}},{"base_weights":[2.3570991E-4,-2.4407308E-3,8.325651E-2,-1.7959575E-1,-1.2286056E-3,2.1823816E-1,-5.3090006E-2,-3.7432542E-1,2.1225095E-2,-3.359613E-3,1.0334741E-1,4.2551902E-1,1.06747046E-1,-1.6530663E-1,3.0206144E-1,-1.4967845E-1,-1.5158981E-1,1.1306891E-1,-5.107541E-2,2.3115047E-3,-7.307946E-2,-1.4109667E-1,6.4318454E-1,7.1195817E-1,-3.55063E-2,4.3043513E-3,4.7050947E-1,1.8634876E-2,-3.022498E-1,5.197651E-1,-2.3729888E-1,4.404397E-2,-9.007456E-2,-4.556444E-2,4.1986708E-2,-6.773503E-4,3.2916177E-2,-8.483877E-3,-5.4234564E-2,-7.584949E-2,-2.3933057E-2,2.9062137E-1,1.6578194E-2,1.0120979E-1,2.9545262E-1,-1.2739968E-1,4.0904578E-2,-1.5895296E-2,1.2986799E-1,6.9035605E-2,2.140405E-1,5.821275E-2,-4.7540046E-2,-2.1180908E-1,-4.5979038E-2,2.0776339E-1,1.3279439E-2,-1.1111867E-1,4.4263173E-2],"categories":[],"categories_nodes":[],"categories_segments":[],"categories_sizes":[],"default_left":[0,0,0,0,0,0,0,0,0,0,0,0,0,0,0,0,0,0,0,0,0,0,0,0,0,0,0,0,0,0,0,0,0,0,0,0,0,0,0,0,0,0,0,0,0,0,0,0,0,0,0,0,0,0,0,0,0,0,0],"id":20,"left_children":[1,3,5,7,9,11,13,15,17,19,21,23,25,27,29,-1,31,-1,33,35,37,39,41,43,45,47,49,51,53,55,57,-1,-1,-1,-1,-1,-1,-1,-1,-1,-1,-1,-1,-1,-1,-1,-1,-1,-1,-1,-1,-1,-1,-1,-1,-1,-1,-1,-1],"loss_changes":[8.608736E-1,8.057622E-1,2.2385042E0,1.0051422E0,8.313411E-1,1.3642857E0,2.4810202E0,2.851628E-1,3.664055E-1,1.4454757E0,9.921771E0,2.7984488E0,1.5258318E0,1.1895405E0,1.8846502E0,0E0,3.1467777E-1,0E0,2.5426742E-1,1.6597998E0,1.3217775E0,3.3679628E-1,4.4252405E0,9.966097E-1,6.598129E-1,8.331951E-1,3.6146307E-1,6.83114E-1,1.516051E0,8.7306833E-1,3.1075606E-1,0E0,0E0,0E0,0E0,0E0,0E0,0E0,0E0,0E0,0E0,0E0,0E0,0E0,0E0,0E0,0E0,0E0,0E0,0E0,0E0,0E0,0E0,0E0,0E0,0E0,0E0,0E0,0E0],"parents":[2147483647,0,0,1,1,2,2,3,3,4,4,5,5,6,6,7,7,8,8,9,9,10,10,11,11,12,12,13,13,14,14,16,16,18,18,19,19,20,20,21,21,22,22,23,23,24,24,25,25,26,26,27,27,28,28,29,29,30,30],"right_children":[2,4,6,8,10,12,14,16,18,20,22,24,26,28,30,-1,32,-1,34,36,38,40,42,44,46,48,50,52,54,56,58,-1,-1,-1,-1,-1,-1,-1,-1,-1,-1,-1,-1,-1,-1,-1,-1,-1,-1,-1,-1,-1,-1,-1,-1,-1,-1,-1,-1],"split_conditions":[6.4E1,1.2E-1,7E1,9.1008726E-5,1E0,3.12E0,4.94E0,1.893E1,1.6E1,9.7094184E-1,6.48E1,3.4E-1,2.552E1,1.8E1,2.9192858E1,-1.4967845E-1,2.4E1,1.1306891E-1,2.6E1,9.350162E-1,6.48E1,6.8E0,1.2414042E-4,2.042E1,5.1425713E1,4.405683E-1,2.1E1,1E-1,4E-2,8.071286E1,2.4E1,4.404397E-2,-9.007456E-2,-4.556444E-2,4.1986708E-2,-6.773503E-4,3.2916177E-2,-8.483877E-3,-5.4234564E-2,-7.584949E-2,-2.3933057E-2,2.9062137E-1,1.6578194E-2,1.0120979E-1,2.9545262E-1,-1.2739968E-1,4.0904578E-2,-1.5895296E-2,1.2986799E-1,6.9035605E-2,2.140405E-1,5.821275E-2,-4.7540046E-2,-2.1180908E-1,-4.5979038E-2,2.0776339E-1,1.3279439E-2,-1.1111867E-1,4.4263173E-2],"split_indices":[32,12,32,23,19,34,7,4,1,19,40,7,4,1,2,0,1,0,1,19,40,35,23,4,9,14,1,11,6,9,1,0,0,0,0,0,0,0,0,0,0,0,0,0,0,0,0,0,0,0,0,0,0,0,0,0,0,0,0],"split_type":[0,0,0,0,0,0,0,0,0,0,0,0,0,0,0,0,0,0,0,0,0,0,0,0,0,0,0,0,0,0,0,0,0,0,0,0,0,0,0,0,0,0,0,0,0,0,0,0,0,0,0,0,0,0,0,0,0,0,0],"sum_hessian":[3.8724E3,3.7524E3,1.2E2,2.45E1,3.7279E3,6E1,6E1,1.2E1,1.25E1,3.6544E3,7.35E1,2E1,4E1,4.6E1,1.4E1,6.9E0,5.1E0,1.4E0,1.11E1,3.3804E3,2.74E2,5.11E1,2.24E1,1.2E1,8E0,3.2E1,8E0,2E1,2.6E1,1E1,4E0,1.7E0,3.4E0,7.4E0,3.7E0,3.2434E3,1.37E2,1.944E2,7.96E1,1.7E1,3.41E1,1.4E1,8.400001E0,6E0,6E0,2E0,6E0,2.9E1,3E0,5E0,3E0,1E1,1E1,6E0,2E1,7E0,3E0,3E0,1E0],"tree_param":{"num_deleted":"0","num_feature":"43","num_nodes":"59","size_leaf_vector":"1"}},{"base_weights":[3.4710317E-4,-6.6136666E-2,3.3192926E-3,-1.8233063E-2,-3.2184163E-1,6.931079E-2,-5.916625E-4,-5.6068193E-2,3.149298E-1,-8.183894E-2,-6.4386E-1,4.6953402E-2,7.3235714E-1,-2.3116488E-3,1.8309991E-1,-9.158771E-2,2.2199525E-1,9.761504E-4,8.438191E-1,-1.8139394E-1,1.6861048E-1,4.4185955E-2,-2.405006E-1,1.7154923E-2,5.1683646E-1,2.6753667E-1,4.9760986E-2,2.9182756E-2,-1.0738983E-2,-1.8958053E-1,5.0152594E-1,-1.9787848E-2,-1.2507834E-1,9.398093E-2,-7.151957E-2,-5.234571E-2,2.3965184E-1,2.8304344E-1,6.079792E-2,-8.381817E-2,5.5640757E-2,-4.084289E-3,2.396797E-2,7.442785E-2,-4.1842954E-3,-2.1703374E-2,3.354225E-1,5.33799E-3,5.4528188E-2,1.043799E-1,-3.5751546E-3,1.0119477E-2,-1.2262047E-1,1.9824545E-1,4.623587E-2],"categories":[],"categories_nodes":[],"categories_segments":[],"categories_sizes":[],"default_left":[0,0,0,0,0,0,0,0,0,0,0,0,0,0,0,0,0,0,0,0,0,0,0,0,0,0,0,0,0,0,0,0,0,0,0,0,0,0,0,0,0,0,0,0,0,0,0,0,0,0,0,0,0,0,0],"id":21,"left_children":[1,3,5,7,9,11,13,15,17,19,21,23,25,27,29,31,33,35,37,39,-1,41,-1,43,45,-1,-1,47,49,51,53,-1,-1,-1,-1,-1,-1,-1,-1,-1,-1,-1,-1,-1,-1,-1,-1,-1,-1,-1,-1,-1,-1,-1,-1],"loss_changes":[7.656124E-1,2.0250473E0,9.571928E-1,1.7912177E0,1.9644527E0,3.0415907E0,1.1069012E0,1.2766454E0,2.4068537E0,1.1339734E0,1.2297978E0,2.816697E0,4.5719624E-1,9.214587E-1,3.9518921E0,9.188496E-1,6.924096E-1,1.5533311E0,1.5384054E-1,5.8032167E-1,0E0,7.2793583E-3,0E0,1.3739313E0,4.331746E0,0E0,0E0,1.2703843E0,1.1614856E0,7.8214246E-1,8.831911E-1,0E0,0E0,0E0,0E0,0E0,0E0,0E0,0E0,0E0,0E0,0E0,0E0,0E0,0E0,0E0,0E0,0E0,0E0,0E0,0E0,0E0,0E0,0E0,0E0],"parents":[2147483647,0,0,1,1,2,2,3,3,4,4,5,5,6,6,7,7,8,8,9,9,10,10,11,11,12,12,13,13,14,14,15,15,16,16,17,17,18,18,19,19,21,21,23,23,24,24,27,27,28,28,29,29,30,30],"right_children":[2,4,6,8,10,12,14,16,18,20,22,24,26,28,30,32,34,36,38,40,-1,42,-1,44,46,-1,-1,48,50,52,54,-1,-1,-1,-1,-1,-1,-1,-1,-1,-1,-1,-1,-1,-1,-1,-1,-1,-1,-1,-1,-1,-1,-1,-1],"split_conditions":[8.142857E-2,5.5831104E-5,1.2142857E-1,4.332857E0,1.862948E-1,2.78E0,4.542529E1,2.5891428E1,3.1817142E1,5.39E0,1.89E1,3.96E0,8E0,1.61E0,2.118E1,7E-2,1.45E1,5.541764E-5,2.2E1,1.3623E4,1.6861048E-1,8E0,-2.405006E-1,6E-2,1.69E1,2.6753667E-1,4.9760986E-2,8.917E1,2.9323308E-3,4.276E1,3.546E1,-1.9787848E-2,-1.2507834E-1,9.398093E-2,-7.151957E-2,-5.234571E-2,2.3965184E-1,2.8304344E-1,6.079792E-2,-8.381817E-2,5.5640757E-2,-4.084289E-3,2.396797E-2,7.442785E-2,-4.1842954E-3,-2.1703374E-2,3.354225E-1,5.33799E-3,5.4528188E-2,1.043799E-1,-3.5751546E-3,1.0119477E-2,-1.2262047E-1,1.9824545E-1,4.623587E-2],"split_indices":[13,23,13,10,16,6,18,4,5,10,4,11,0,36,4,6,35,23,1,33,0,0,0,34,4,0,0,9,37,3,9,0,0,0,0,0,0,0,0,0,0,0,0,0,0,0,0,0,0,0,0,0,0,0,0],"split_type":[0,0,0,0,0,0,0,0,0,0,0,0,0,0,0,0,0,0,0,0,0,0,0,0,0,0,0,0,0,0,0,0,0,0,0,0,0,0,0,0,0,0,0,0,0,0,0,0,0,0,0,0,0,0,0],"sum_hessian":[3.8724E3,1.648E2,3.7076E3,1.397E2,2.51E1,2.065E2,3.5011E3,1.262E2,1.35E1,1.5099999E1,1E1,2.008E2,5.7E0,3.4696E3,3.15E1,1.125E2,1.37E1,9.1E0,4.4E0,1.37E1,1.4E0,2E0,8E0,1.898E2,1.1E1,4E0,1.7E0,7.319E2,2.7377E3,1.47E1,1.68E1,1.054E2,7.1E0,1.17E1,2E0,8.1E0,1E0,3.4E0,1E0,1.1E1,2.7E0,1E0,1E0,2.17E1,1.681E2,6E0,5E0,6.8210004E2,4.98E1,8E0,2.7297E3,7.7E0,7E0,1.0900001E1,5.9E0],"tree_param":{"num_deleted":"0","num_feature":"43","num_nodes":"55","size_leaf_vector":"1"}},{"base_weights":[5.8442313E-4,-2.0541588E-2,8.33375E-3,-2.4971422E-2,2.0774774E-1,1.1777764E-1,2.2436415E-3,6.7031956E-3,-5.5257186E-2,-3.953598E-2,4.033642E-1,1.4135815E-1,-4.0555027E-1,9.754045E-2,-3.983427E-3,1.7912282E-2,-4.7518718E-1,-7.02714E-2,1.5827465E-1,-1.5410812E-1,1.8790752E-1,-1.5913285E-2,5.730644E-1,1.6658077E-2,2.716829E-1,-1.4405797E-1,-3.5135623E-2,-4.3021295E-2,2.2683448E-1,-7.3785625E-2,4.817994E-3,-4.784422E-3,4.6526685E-2,-2.3804363E-3,-1.5881404E-1,-5.404167E-2,-1.3356969E-2,-3.16156E-2,1.9908494E-1,-1.4573957E-2,-5.598104E-2,7.387229E-2,4.5610787E-3,6.700888E-2,-4.8146404E-2,2.1268927E-1,-5.673516E-2,-9.295418E-2,4.889512E-2,9.998646E-2,-9.964121E-2,-2.771505E-2,6.751694E-2,1.5795265E-1,2.6460135E-2,-3.0358955E-2,4.888117E-2,1.876105E-2,-1.5653571E-3],"categories":[],"categories_nodes":[],"categories_segments":[],"categories_sizes":[],"default_left":[0,0,0,0,0,0,0,0,0,0,0,0,0,0,0,0,0,0,0,0,0,0,0,0,0,0,0,0,0,0,0,0,0,0,0,0,0,0,0,0,0,0,0,0,0,0,0,0,0,0,0,0,0,0,0,0,0,0,0],"id":22,"left_children":[1,3,5,7,9,11,13,15,17,19,21,23,25,27,29,31,33,35,37,39,41,43,45,47,49,-1,-1,51,53,55,57,-1,-1,-1,-1,-1,-1,-1,-1,-1,-1,-1,-1,-1,-1,-1,-1,-1,-1,-1,-1,-1,-1,-1,-1,-1,-1,-1,-1],"loss_changes":[6.342947E-1,1.0567205E0,1.8890681E0,9.797095E-1,9.785655E-1,1.9009743E0,1.5944327E0,2.7087464E0,1.6846615E0,2.817273E-1,8.0601573E-1,2.330816E0,8.800721E-2,3.0048003E0,1.5500133E0,2.2761273E0,2.8446794E-1,1.3736079E0,4.6799836E0,1.493907E-2,3.353159E-2,1.811389E-1,9.627199E-1,3.6098201E0,2.7220325E0,0E0,0E0,1.0767776E0,3.5264368E0,1.8495699E0,1.2983847E0,0E0,0E0,0E0,0E0,0E0,0E0,0E0,0E0,0E0,0E0,0E0,0E0,0E0,0E0,0E0,0E0,0E0,0E0,0E0,0E0,0E0,0E0,0E0,0E0,0E0,0E0,0E0,0E0],"parents":[2147483647,0,0,1,1,2,2,3,3,4,4,5,5,6,6,7,7,8,8,9,9,10,10,11,11,12,12,13,13,14,14,15,15,16,16,17,17,18,18,19,19,20,20,21,21,22,22,23,23,24,24,27,27,28,28,29,29,30,30],"right_children":[2,4,6,8,10,12,14,16,18,20,22,24,26,28,30,32,34,36,38,40,42,44,46,48,50,-1,-1,52,54,56,58,-1,-1,-1,-1,-1,-1,-1,-1,-1,-1,-1,-1,-1,-1,-1,-1,-1,-1,-1,-1,-1,-1,-1,-1,-1,-1,-1,-1],"split_conditions":[1.5E1,2.331E1,1.7E1,5.5E1,4.82E1,2.65E0,1.593E1,2.2875423E-4,1E0,2E0,6.39E1,1.6E1,5E0,3.99E2,5.6648943E-5,5.15E1,3.942857E0,1.6714285E-1,3.99E2,2.311E1,4.336E1,9E0,9E-2,2.84E2,4.5933693E1,-1.4405797E-1,-3.5135623E-2,6.7524284E1,8.388678E0,3.9871428E0,2.4E1,-4.784422E-3,4.6526685E-2,-2.3804363E-3,-1.5881404E-1,-5.404167E-2,-1.3356969E-2,-3.16156E-2,1.9908494E-1,-1.4573957E-2,-5.598104E-2,7.387229E-2,4.5610787E-3,6.700888E-2,-4.8146404E-2,2.1268927E-1,-5.673516E-2,-9.295418E-2,4.889512E-2,9.998646E-2,-9.964121E-2,-2.771505E-2,6.751694E-2,1.5795265E-1,2.6460135E-2,-3.0358955E-2,4.888117E-2,1.876105E-2,-1.5653571E-3],"split_indices":[1,4,1,42,42,8,4,23,19,36,25,1,0,38,23,42,10,13,38,9,3,0,11,38,18,0,0,9,41,10,1,0,0,0,0,0,0,0,0,0,0,0,0,0,0,0,0,0,0,0,0,0,0,0,0,0,0,0,0],"split_type":[0,0,0,0,0,0,0,0,0,0,0,0,0,0,0,0,0,0,0,0,0,0,0,0,0,0,0,0,0,0,0,0,0,0,0,0,0,0,0,0,0,0,0,0,0,0,0,0,0,0,0,0,0,0,0,0,0,0,0],"sum_hessian":[3.8724E3,1.0388E3,2.8336E3,1.0199E3,1.89E1,1.484E2,2.6852E3,4.989E2,5.21E2,8.7E0,1.02E1,1.427E2,5.7E0,1.638E2,2.5214E3,4.885E2,1.0400001E1,4.874E2,3.36E1,6E0,2.7E0,3.2E0,7E0,7.35E1,6.92E1,4E0,1.7E0,7.88E1,8.5E1,2.815E2,2.2399E3,3.925E2,9.6E1,1.2E0,9.200001E0,9.14E1,3.96E2,2.26E1,1.1E1,2E0,4E0,1.7E0,1E0,1E0,2.2E0,6E0,1E0,2.24E1,5.11E1,6.32E1,6E0,6.71E1,1.17E1,2.6E1,5.9E1,2.528E2,2.87E1,3.31E2,1.9089E3],"tree_param":{"num_deleted":"0","num_feature":"43","num_nodes":"59","size_leaf_vector":"1"}},{"base_weights":[4.6085136E-4,-1.6956778E-2,9.965109E-3,3.2685855E-3,-6.462717E-2,2.1791011E-2,-1.5883103E-2,6.9264285E-2,-3.4123197E-2,-2.0565276E-1,-3.219838E-2,4.3486184E-3,1.00256726E-1,-8.525889E-2,2.433998E-2,2.885543E-1,5.7141326E-2,-1.8030748E-2,-3.717068E-1,-1.0517663E-1,-6.7141795E-1,-4.4611346E-2,1.6503297E-1,1.7082619E-2,-4.5707338E-2,1.4110991E-1,-1.0783016E-1,-1.5636593E-1,2.6354712E-2,-2.4381772E-2,8.2729004E-2,1.0419906E-2,1.5181908E-1,-1.1750239E-2,5.9829485E-2,-3.529874E-2,-1.7377904E-1,-1.2228357E-1,-1.6326271E-2,-2.4378371E-1,-1.9575553E-2,2.7369458E-2,-2.0206572E-2,1.4652011E-1,8.968887E-3,4.334749E-3,1.05860226E-1,-3.1309053E-2,4.340584E-3,4.4788107E-2,-1.2715878E-1,3.2398687E-3,-1.06245615E-1,5.7203613E-2,-5.218295E-2,-1.1569341E-1,2.0978868E-2,4.46328E-2,-1.6166942E-2,3.009463E-3,6.364876E-2],"categories":[],"categories_nodes":[],"categories_segments":[],"categories_sizes":[],"default_left":[0,0,0,0,0,0,0,0,0,0,0,0,0,0,0,0,0,0,0,0,0,0,0,0,0,0,0,0,0,0,0,0,0,0,0,0,0,0,0,0,0,0,0,0,0,0,0,0,0,0,0,0,0,0,0,0,0,0,0,0,0],"id":23,"left_children":[1,3,5,7,9,11,13,15,17,19,21,23,25,27,29,-1,31,33,35,37,39,41,43,45,47,49,51,53,55,57,59,-1,-1,-1,-1,-1,-1,-1,-1,-1,-1,-1,-1,-1,-1,-1,-1,-1,-1,-1,-1,-1,-1,-1,-1,-1,-1,-1,-1,-1,-1],"loss_changes":[6.413779E-1,1.3189771E0,7.665597E-1,2.3745608E0,1.8569936E0,2.353881E0,2.1993213E0,3.7106612E0,3.3305118E0,3.486052E0,8.213973E-1,8.985127E-1,2.6743329E0,2.2993608E0,1.422149E0,0E0,3.4469447E0,2.7077596E0,1.4029698E0,9.556328E-1,1.0852861E0,9.75042E-1,8.5500455E-1,9.8838365E-1,1.0106485E0,1.2742033E0,1.5203998E0,1.1116614E0,2.0628166E0,1.4024125E0,2.1366484E0,0E0,0E0,0E0,0E0,0E0,0E0,0E0,0E0,0E0,0E0,0E0,0E0,0E0,0E0,0E0,0E0,0E0,0E0,0E0,0E0,0E0,0E0,0E0,0E0,0E0,0E0,0E0,0E0,0E0,0E0],"parents":[2147483647,0,0,1,1,2,2,3,3,4,4,5,5,6,6,7,7,8,8,9,9,10,10,11,11,12,12,13,13,14,14,16,16,17,17,18,18,19,19,20,20,21,21,22,22,23,23,24,24,25,25,26,26,27,27,28,28,29,29,30,30],"right_children":[2,4,6,8,10,12,14,16,18,20,22,24,26,28,30,-1,32,34,36,38,40,42,44,46,48,50,52,54,56,58,60,-1,-1,-1,-1,-1,-1,-1,-1,-1,-1,-1,-1,-1,-1,-1,-1,-1,-1,-1,-1,-1,-1,-1,-1,-1,-1,-1,-1,-1,-1],"split_conditions":[3.5E-1,1.9753484E-2,5.098009E-1,2.3931566E-1,1.1E-1,4.2E1,3.53E0,1.747857E1,2.4E1,3.046857E1,5.5998427E-1,8.6E-1,3.77278E1,6.053851E-1,4.64E1,2.885543E-1,3.1E-1,2.201E1,5.57E0,8.554E3,2.45E1,-9.7094184E-1,4.826863E-1,3.326E1,5.95E1,9.962209E-2,5.4E1,4.58E1,4.45E0,2.73E2,2.328E1,1.0419906E-2,1.5181908E-1,-1.1750239E-2,5.9829485E-2,-3.529874E-2,-1.7377904E-1,-1.2228357E-1,-1.6326271E-2,-2.4378371E-1,-1.9575553E-2,2.7369458E-2,-2.0206572E-2,1.4652011E-1,8.968887E-3,4.334749E-3,1.05860226E-1,-3.1309053E-2,4.340584E-3,4.4788107E-2,-1.2715878E-1,3.2398687E-3,-1.06245615E-1,5.7203613E-2,-5.218295E-2,-1.1569341E-1,2.0978868E-2,4.46328E-2,-1.6166942E-2,3.009463E-3,6.364876E-2],"split_indices":[34,37,14,19,34,31,34,9,1,5,17,8,18,16,6,0,34,4,35,33,4,20,16,7,42,23,25,42,35,38,4,0,0,0,0,0,0,0,0,0,0,0,0,0,0,0,0,0,0,0,0,0,0,0,0,0,0,0,0,0,0],"split_type":[0,0,0,0,0,0,0,0,0,0,0,0,0,0,0,0,0,0,0,0,0,0,0,0,0,0,0,0,0,0,0,0,0,0,0,0,0,0,0,0,0,0,0,0,0,0,0,0,0,0,0,0,0,0,0,0,0,0,0,0,0],"sum_hessian":[3.8724E3,1.3668E3,2.5056E3,9.603E2,4.065E2,1.7192E3,7.864E2,3.47E2,6.133E2,7.5E1,3.315E2,1.4074E3,3.118E2,2.882E2,4.982E2,3.6E0,3.434E2,5.864E2,2.69E1,6.27E1,1.23E1,3.126E2,1.89E1,1.1225E3,2.849E2,2.609E2,5.09E1,1.758E2,1.124E2,2.719E2,2.263E2,3.281E2,1.53E1,5.352E2,5.12E1,1.28E1,1.41E1,8E0,5.47E1,9.7E0,2.6E0,4.44E1,2.682E2,4.8E0,1.41E1,1.1148E3,7.7E0,1.439E2,1.41E2,2.579E2,3E0,3.5E1,1.59E1,8E0,1.678E2,1E1,1.024E2,3.9E1,2.329E2,1.456E2,8.0700005E1],"tree_param":{"num_deleted":"0","num_feature":"43","num_nodes":"61","size_leaf_vector":"1"}},{"base_weights":[3.1065103E-4,-1.1399312E-2,1.240382E-2,-4.0092096E-2,5.246399E-3,-2.5237811E-4,6.0895823E-2,6.5932698E-3,-9.9608034E-2,1.088923E-2,-1.0933675E-1,8.780888E-3,-1.6021289E-1,1.0864531E-1,-4.3291515E-3,-1.8128115E-1,3.0749619E-2,-1.1495871E-1,1.9327605E-1,1.5330294E-2,-1.9565597E-1,8.881904E-2,-1.3191725E-1,5.936553E-3,4.009714E-1,-2.0613493E-1,5.881287E-2,6.300034E-1,7.877821E-2,6.9530755E-1,-1.8693553E-2,6.99577E-2,-6.336259E-2,1.2409555E-1,3.8801078E-3,1.566587E-2,-4.2787805E-2,-2.443866E-2,2.4749465E-1,3.4187103E-3,6.842363E-2,-1.2209325E-2,-8.575239E-2,-5.0167225E-2,5.0682854E-2,3.583433E-2,-2.7912942E-4,4.6158053E-2,2.1299891E-1,-7.878482E-2,-2.0335289E-2,8.00718E-2,-2.6737275E-2,-9.428199E-2,2.4065524E-1,-6.5856986E-2,2.9670952E-2,1.0930396E-2,2.8639704E-1,-4.1211773E-2,1.0775108E-2],"categories":[],"categories_nodes":[],"categories_segments":[],"categories_sizes":[],"default_left":[0,0,0,0,0,0,0,0,0,0,0,0,0,0,0,0,0,0,0,0,0,0,0,0,0,0,0,0,0,0,0,0,0,0,0,0,0,0,0,0,0,0,0,0,0,0,0,0,0,0,0,0,0,0,0,0,0,0,0,0,0],"id":24,"left_children":[1,3,5,7,9,11,13,15,17,19,21,23,25,27,29,31,33,35,37,39,41,-1,43,45,47,49,51,53,55,57,59,-1,-1,-1,-1,-1,-1,-1,-1,-1,-1,-1,-1,-1,-1,-1,-1,-1,-1,-1,-1,-1,-1,-1,-1,-1,-1,-1,-1,-1,-1],"loss_changes":[5.4865575E-1,9.4034135E-1,1.169774E0,2.0089736E0,8.07209E-1,2.1869178E0,1.2291245E0,1.8481487E0,1.4510372E0,1.0936459E0,5.754884E-1,1.5957158E0,8.258245E-1,3.497547E0,1.6983597E0,6.248045E-1,2.454576E0,1.4070857E0,2.8787768E0,9.725139E-1,3.3913833E-1,0E0,6.2523115E-1,1.1095446E0,6.7730415E-1,5.065317E-1,4.7940135E-1,2.2356567E0,1.3220276E0,5.4620314E-1,1.0762647E0,0E0,0E0,0E0,0E0,0E0,0E0,0E0,0E0,0E0,0E0,0E0,0E0,0E0,0E0,0E0,0E0,0E0,0E0,0E0,0E0,0E0,0E0,0E0,0E0,0E0,0E0,0E0,0E0,0E0,0E0],"parents":[2147483647,0,0,1,1,2,2,3,3,4,4,5,5,6,6,7,7,8,8,9,9,10,10,11,11,12,12,13,13,14,14,15,15,16,16,17,17,18,18,19,19,20,20,22,22,23,23,24,24,25,25,26,26,27,27,28,28,29,29,30,30],"right_children":[2,4,6,8,10,12,14,16,18,20,22,24,26,28,30,32,34,36,38,40,42,-1,44,46,48,50,52,54,56,58,60,-1,-1,-1,-1,-1,-1,-1,-1,-1,-1,-1,-1,-1,-1,-1,-1,-1,-1,-1,-1,-1,-1,-1,-1,-1,-1,-1,-1,-1,-1],"split_conditions":[8.554E3,5E-1,4.6904454E-1,6.02E0,3.5988912E-2,3.156E1,8.31E0,1.9001053E-1,1.753E1,9.044428E1,4.2571428E-1,7.022E1,2.8237143E1,1E0,2.3752857E1,1.5571429E-1,1.9266452E-1,1.8822029E-1,7.56E5,8.951857E1,6.58E1,8.881904E-2,8.082E1,7.6373625E-3,5.577255E0,3.668E1,2.807E1,4.1E1,2.2285715E-1,1.2E1,1.0741233E0,6.99577E-2,-6.336259E-2,1.2409555E-1,3.8801078E-3,1.566587E-2,-4.2787805E-2,-2.443866E-2,2.4749465E-1,3.4187103E-3,6.842363E-2,-1.2209325E-2,-8.575239E-2,-5.0167225E-2,5.0682854E-2,3.583433E-2,-2.7912942E-4,4.6158053E-2,2.1299891E-1,-7.878482E-2,-2.0335289E-2,8.00718E-2,-2.6737275E-2,-9.428199E-2,2.4065524E-1,-6.5856986E-2,2.9670952E-2,1.0930396E-2,2.8639704E-1,-4.1211773E-2,1.0775108E-2],"split_indices":[33,34,17,35,23,11,35,16,11,9,12,34,2,27,2,12,16,15,21,9,25,0,7,37,37,11,7,1,12,0,37,0,0,0,0,0,0,0,0,0,0,0,0,0,0,0,0,0,0,0,0,0,0,0,0,0,0,0,0,0,0],"split_type":[0,0,0,0,0,0,0,0,0,0,0,0,0,0,0,0,0,0,0,0,0,0,0,0,0,0,0,0,0,0,0,0,0,0,0,0,0,0,0,0,0,0,0,0,0,0,0,0,0,0,0,0,0,0,0,0,0,0,0,0,0],"sum_hessian":[3.8724E3,1.9674E3,1.905E3,7.218E2,1.2456E3,1.5115E3,3.935E2,4.05E2,3.168E2,1.188E3,5.7600002E1,1.4316E3,7.99E1,2.268E2,1.667E2,4.54E1,3.596E2,3.016E2,1.52E1,1.1639E3,2.41E1,2.4E0,5.52E1,1.4223E3,9.3E0,6.61E1,1.38E1,1.12E1,2.156E2,2.4E0,1.643E2,2.6E0,4.28E1,1.5E1,3.446E2,4.27E1,2.589E2,1.12E1,4E0,1.1438E3,2.01E1,9.4E0,1.47E1,4.9800003E1,5.4E0,8.02E1,1.3421E3,6E0,3.3E0,4.63E1,1.98E1,5.4E0,8.4E0,1.6E0,9.6E0,1.3E1,2.026E2,1E0,1.4E0,5.13E1,1.13E2],"tree_param":{"num_deleted":"0","num_feature":"43","num_nodes":"61","size_leaf_vector":"1"}},{"base_weights":[4.8065846E-4,-1.09528415E-1,1.8256119E-3,-1.955679E-1,1.5337558E-1,2.4909873E-1,8.0044905E-4,-3.2422605E-1,-4.162134E-2,2.689384E-1,-1.816693E-1,6.0597662E-2,4.1213012E-1,-1.2979801E-1,1.9087893E-3,-1.2822299E-1,-4.7628358E-1,-1.7345896E-1,1.8939891E-1,-5.3111874E-2,1.219941E-1,-7.097563E-2,-5.0093653E-3,-1.4066839E-1,8.403333E-2,-2.6071144E-2,4.9239555E-1,1.9559786E-3,-4.342563E-1,3.0774096E-2,-2.2080536E-3,-4.326863E-3,-1.14408694E-1,-1.6038466E-2,-1.545491E-1,-6.835057E-2,4.8731234E-2,2.7706223E-3,7.031932E-2,2.0545347E-2,-5.721331E-2,-1.7021736E-3,-5.706417E-2,1.9242762E-1,4.83157E-2,3.2025598E-2,-1.2151313E-1,-8.958254E-3,-2.0359702E-1,2.0853063E-2,-1.566583E-2,-8.389478E-2,-2.5558757E-4],"categories":[],"categories_nodes":[],"categories_segments":[],"categories_sizes":[],"default_left":[0,0,0,0,0,0,0,0,0,0,0,0,0,0,0,0,0,0,0,0,0,0,0,0,0,0,0,0,0,0,0,0,0,0,0,0,0,0,0,0,0,0,0,0,0,0,0,0,0,0,0,0,0],"id":25,"left_children":[1,3,5,7,9,11,13,15,17,19,21,23,25,27,29,31,33,35,37,39,-1,-1,-1,41,-1,-1,43,45,47,49,51,-1,-1,-1,-1,-1,-1,-1,-1,-1,-1,-1,-1,-1,-1,-1,-1,-1,-1,-1,-1,-1,-1],"loss_changes":[5.732969E-1,1.0886171E0,9.70079E-1,6.935967E-1,5.173545E-1,4.6058494E-1,5.5214113E-1,5.1414156E-1,5.6280756E-1,4.3847924E-1,2.9569998E-2,4.1493788E-1,3.7524903E-1,1.2884957E0,4.494622E-1,2.76811E-1,1.4507174E-1,2.4888057E-1,5.2963793E-2,7.49675E-2,0E0,0E0,0E0,3.3031434E-2,0E0,0E0,2.5717115E-1,1.0412948E0,9.3842864E-1,1.5213588E0,1.2453309E0,0E0,0E0,0E0,0E0,0E0,0E0,0E0,0E0,0E0,0E0,0E0,0E0,0E0,0E0,0E0,0E0,0E0,0E0,0E0,0E0,0E0,0E0],"parents":[2147483647,0,0,1,1,2,2,3,3,4,4,5,5,6,6,7,7,8,8,9,9,10,10,11,11,12,12,13,13,14,14,15,15,16,16,17,17,18,18,19,19,23,23,26,26,27,27,28,28,29,29,30,30],"right_children":[2,4,6,8,10,12,14,16,18,20,22,24,26,28,30,32,34,36,38,40,-1,-1,-1,42,-1,-1,44,46,48,50,52,-1,-1,-1,-1,-1,-1,-1,-1,-1,-1,-1,-1,-1,-1,-1,-1,-1,-1,-1,-1,-1,-1],"split_conditions":[1.7225993E-1,7E-2,1.7478754E-1,1.7478754E-1,2.32E0,1.8326057E-1,5.8571428E-2,2.6375713E1,3.4806103E1,4E-2,2.7E1,6.1524284E1,-9.7094184E-1,1.891811E-1,2.021972E-1,5E-2,1.6865575E-1,5.58E0,1.952E1,5E-2,1.219941E-1,-7.097563E-2,-5.0093653E-3,1.5E1,8.403333E-2,-2.6071144E-2,1.8822029E-1,1E-2,1.987E1,7.485108E-1,2.0290251E-1,-4.326863E-3,-1.14408694E-1,-1.6038466E-2,-1.545491E-1,-6.835057E-2,4.8731234E-2,2.7706223E-3,7.031932E-2,2.0545347E-2,-5.721331E-2,-1.7021736E-3,-5.706417E-2,1.9242762E-1,4.83157E-2,3.2025598E-2,-1.2151313E-1,-8.958254E-3,-2.0359702E-1,2.0853063E-2,-1.566583E-2,-8.389478E-2,-2.5558757E-4],"split_indices":[14,8,14,15,7,17,13,2,18,7,1,9,20,14,16,8,16,10,4,6,0,0,0,1,0,0,17,6,4,19,16,0,0,0,0,0,0,0,0,0,0,0,0,0,0,0,0,0,0,0,0,0,0],"split_type":[0,0,0,0,0,0,0,0,0,0,0,0,0,0,0,0,0,0,0,0,0,0,0,0,0,0,0,0,0,0,0,0,0,0,0,0,0,0,0,0,0,0,0,0,0,0,0,0,0,0,0,0,0],"sum_hessian":[3.8724E3,4.58E1,3.8266E3,3.47E1,1.11E1,1.48E1,3.8118E3,1.83E1,1.64E1,8.4E0,2.7E0,7.5E0,7.3E0,3.11E1,3.7807E3,8.8E0,9.5E0,1.06E1,5.8E0,2.7E0,5.7E0,1.7E0,1E0,4.1E0,3.4E0,1E0,6.3E0,2.24E1,8.7E0,4.711E2,3.3096E3,6.8E0,2E0,1E0,8.5E0,9.4E0,1.2E0,1.4E0,4.4E0,1.7E0,1E0,1.4E0,2.7E0,3.7E0,2.6E0,1.84E1,4E0,3.7E0,5E0,3.213E2,1.498E2,1.51E1,3.2945E3],"tree_param":{"num_deleted":"0","num_feature":"43","num_nodes":"53","size_leaf_vector":"1"}},{"base_weights":[2.4156347E-4,-8.231027E-2,1.8755011E-3,-2.1639846E-1,2.3132484E-2,7.961216E-2,-1.3061938E-3,-2.6366398E-1,1.9455592E-1,1.13472655E-1,-1.5306735E-1,-5.3961005E-2,1.108643E-1,-1.4874232E-1,-4.3674713E-4,7.933704E-5,-3.0163005E-1,1.2872645E-1,-1.7761098E-2,6.050934E-2,3.5559472E-1,-2.9421055E-1,1.0768255E-1,-1.465812E-1,4.2256594E-2,1.3412717E-1,-1.0638012E-1,1.5836823E-1,-2.094205E-1,-2.827847E-3,5.093981E-2,-2.4824318E-2,3.521539E-2,-1.0447131E-1,-2.9296106E-2,5.591824E-2,8.296613E-3,1.22106105E-1,2.248385E-2,9.047699E-3,-1.0008079E-1,9.69389E-2,-9.84192E-6,-3.4074173E-3,-7.064039E-2,-1.8096605E-2,4.186594E-2,7.0832685E-2,9.7440425E-3,-7.510922E-2,8.878538E-2,8.928935E-2,-4.1002035E-2,-1.9229194E-3,-8.9529715E-2,-5.2575085E-2,-5.3324073E-4,1.12632625E-1,6.3590165E-3],"categories":[],"categories_nodes":[],"categories_segments":[],"categories_sizes":[],"default_left":[0,0,0,0,0,0,0,0,0,0,0,0,0,0,0,0,0,0,0,0,0,0,0,0,0,0,0,0,0,0,0,0,0,0,0,0,0,0,0,0,0,0,0,0,0,0,0,0,0,0,0,0,0,0,0,0,0,0,0],"id":26,"left_children":[1,3,5,7,9,11,13,15,17,19,21,23,25,27,29,31,33,-1,-1,35,37,39,41,43,45,47,49,51,53,55,57,-1,-1,-1,-1,-1,-1,-1,-1,-1,-1,-1,-1,-1,-1,-1,-1,-1,-1,-1,-1,-1,-1,-1,-1,-1,-1,-1,-1],"loss_changes":[5.226162E-1,1.0682306E0,9.3977654E-1,6.961733E-1,7.018396E-1,6.2964463E-1,4.6792322E-1,3.0242562E-1,2.634628E-1,3.5036725E-1,5.837275E-1,2.6463312E-1,6.277913E-1,4.319527E-1,4.4612592E-1,5.6350354E-2,2.1697426E-1,0E0,0E0,9.824055E-2,4.1658044E-2,1.37837E-1,1.3925236E-1,1.7761877E-1,1.5812628E-1,1.1336433E0,7.8662544E-1,2.0914063E-1,3.2877493E-1,6.281176E-1,1.5507914E0,0E0,0E0,0E0,0E0,0E0,0E0,0E0,0E0,0E0,0E0,0E0,0E0,0E0,0E0,0E0,0E0,0E0,0E0,0E0,0E0,0E0,0E0,0E0,0E0,0E0,0E0,0E0,0E0],"parents":[2147483647,0,0,1,1,2,2,3,3,4,4,5,5,6,6,7,7,8,8,9,9,10,10,11,11,12,12,13,13,14,14,15,15,16,16,19,19,20,20,21,21,22,22,23,23,24,24,25,25,26,26,27,27,28,28,29,29,30,30],"right_children":[2,4,6,8,10,12,14,16,18,20,22,24,26,28,30,32,34,-1,-1,36,38,40,42,44,46,48,50,52,54,56,58,-1,-1,-1,-1,-1,-1,-1,-1,-1,-1,-1,-1,-1,-1,-1,-1,-1,-1,-1,-1,-1,-1,-1,-1,-1,-1,-1,-1],"split_conditions":[-9.9270886E-1,3.73E2,-9.7094184E-1,6.9E1,6.48E1,2.73E2,1.2E-1,4.85E1,2.9998571E1,1.2E1,4E-1,